// af2_weight.h
// 2017/06/14 10:48:55 by marsee

const float af2_fweight[100][10] = {
	{-0.416200312307, -0.049040110151, -0.430599537178, 0.124678824269, 0.136379057679, 0.0995916491179, -0.193309216557, -0.0208694421922, 0.0376313383434, 0.0921640190662},
	{-0.044177195621, -0.310160453646, -0.0215120708893, -0.131890139333, 0.0082482046989, 0.0802847697228, 0.141004403709, -0.126943278402, 0.0845037380147, 0.0721468621798},
	{-0.028668461468, 0.0193605964491, 0.101311316715, -0.170486787958, -0.126479481652, -0.20993936701, 0.169622391712, -0.230027214436, 0.0881213896764, 0.154355163044},
	{-0.27645661674, 0.0397670328665, -0.248538856586, 0.00692892028618, 0.051961041979, 0.0732456314624, 0.00252109942589, 0.0413082558196, 0.15510613871, -0.0810610486598},
	{0.120610231365, -0.157223925063, 0.0855288519777, -0.241385259839, -0.0128677584756, -0.181043045872, 0.098313245178, 0.171473788224, -0.584527235764, 0.116004270464},
	{-0.495937722783, 0.000654176687969, -0.140678474024, 0.0389748713887, 0.0521081340772, -0.00978629193541, -0.293525992378, 0.0702760798624, 0.115579198914, 0.119983059108},
	{0.020965523007, 0.010665493335, 0.0486678901376, 0.0201758152313, -0.102853805993, -0.000850448281136, -0.0339312933105, -0.0183471318717, -0.0398438250959, 0.00355738912065},
	{0.219248971487, 0.186264723842, 0.0900021811916, -5.84602410587e-06, -0.328742528674, -0.237088589329, -0.0505206065758, 0.100247966337, -0.102106286669, -0.0659780368716},
	{0.0297370273703, -0.0134467933963, -0.000833685575017, -0.00393639852978, 0.00237993232771, -0.0301092960264, -0.00965289707333, -0.00731269893895, -0.00506925153902, -0.0395554223964},
	{0.111427202094, -0.29065035004, 0.156426268295, -0.103029321971, -0.225551677057, 0.0233893893112, -0.0737431884355, -0.260199372423, 0.120591916341, 0.0700403383564},
	{-0.310919478251, 0.283052420775, -0.0830864663031, -0.288212399586, 0.0421860712765, 0.263378168442, -0.0577857755385, 0.18183206592, -0.429576648883, -0.0461988306661},
	{0.060113078617, -0.138232061084, 0.0600712604012, -0.166769855359, 0.0547501067461, -0.0586477365325, -0.0998245235408, -0.0402970560707, 0.110779992891, 0.0695326302414},
	{0.0143038157643, -0.282558572013, 0.104801764658, -0.0570312385706, -0.123258564937, 0.0357610649712, 0.134352961233, -0.140365575575, 0.0949094710277, -0.0463493578637},
	{-0.107190090916, 0.0442800490803, 0.0242070938676, 0.121864561739, -0.16005487896, -0.108661880706, 0.109741848176, -0.113978422868, 0.0785744449561, -0.16740033462},
	{-0.0148493366034, 0.159969709967, 0.102920306873, 0.0355338508697, 0.118988769428, -0.126356191184, -0.0154075850632, -0.280271426875, 0.0641658478143, -0.235650647351},
	{0.0667534654056, 0.0417586420595, 0.10935594918, -0.0503039366175, -0.0636453192523, -0.0731433040026, 0.0122022823176, 0.195695362809, 0.0639680346535, -0.552913814346},
	{0.0855604155493, 0.217461976855, 0.0557332865271, 0.0749027191898, -0.234087765242, 0.0412477696817, -0.1291789438, 0.205074219518, -0.219971698696, -0.188932109192},
	{-0.0305721971904, -0.0123657467228, 0.0103672012749, 0.0139965126811, -0.0170129147083, -0.0195178117021, -0.0409049319208, -0.0336518114586, 0.0209154665122, -0.0312303220271},
	{0.208536267047, 0.0714382480129, -0.269896296802, 0.0949413682266, -0.181565928063, 0.0684460358554, 0.0312975394244, 0.0191233101488, -0.290754630529, 0.0816836948786},
	{0.299123458088, 0.0212961179895, 0.155327227314, -0.140424425782, -0.278855249417, -0.268635403764, 0.0354922932838, -0.000906998989059, -0.0125490151995, 0.107762899216},
	{0.00959953179521, -0.130220953718, 0.00430027655047, 0.0583249610873, 0.0472785799673, -0.0564098005446, 0.130753225952, -0.278781989792, 0.0616867806628, -0.0352734146463},
	{-0.0180176247275, -0.00946638165582, 0.00791142303188, -0.00268971519794, 0.000670383609755, -0.0189895967182, -0.0229364407589, 8.74359998016e-06, 0.00512404245901, -0.000663755234935},
	{-0.00531829911633, -0.00459909054675, -0.0143159324843, -0.00526474246181, -0.0035338019051, -0.0192502140588, -0.00625405987086, 0.0106754480237, -0.000404281974004, -0.00580879548043},
	{-0.472479130301, 0.125982387997, 0.0346908187468, 0.0894147773075, 0.101511438975, 0.0395371836672, -0.121432516907, 0.206549229725, -0.126344058144, -0.34461634486},
	{-0.276140512447, -0.0674894861975, 0.121083028217, 0.203999765788, -0.248841230678, 0.0998398626265, 0.00339562327159, -0.289584410129, 0.119803277667, -0.150992256097},
	{-0.065948183901, -0.147637912985, 0.0497637523761, 0.213281489699, -0.430507456813, 0.145081016907, 0.041843817044, 0.0418597180311, -0.29430956707, -0.159007688189},
	{0.115222284721, -0.248903531796, -0.101114757592, 0.0494399078064, -0.248950036331, -0.0276947095961, -0.00234773368898, 0.0407290742509, 0.0345090462629, 0.0892185116989},
	{0.135733604451, 0.159854431797, -0.0486565266113, -0.21923920269, 0.17329200404, -0.259509285369, 0.149669494373, 0.0546305334077, -0.302383620531, 0.0232215456181},
	{-0.248132322166, 0.111517121997, 0.190333670443, -0.00681051647091, 0.00164632695554, -0.0441357906894, -0.0141335744283, 0.11319818314, 0.0422846824402, -0.576187607071},
	{0.0184143088295, -0.24755565464, -0.0394280784304, 0.0319727689869, -0.232301799058, 0.0753109529415, 0.0925644317108, -0.149813722627, 0.070326375739, -0.0131755272414},
	{-0.000112103213537, -0.339406701478, 0.0183694388087, 0.0217310203482, 0.0757996554347, -0.00537639698603, -0.119885349588, 0.000803928476069, 0.0134846434996, 0.061470962074},
	{0.0328739644995, -0.317876298709, 0.03958085798, 0.0432769204665, -0.159855962891, 0.0633416371945, 0.0537801096427, -0.126859037959, 0.0657155353835, 0.00673753737147},
	{0.0665703443407, 0.438601340364, -0.351126847257, -0.458089135547, -0.301067402024, 0.0682101559475, -0.0526085018325, 0.0607774508203, -0.124529519016, 0.0414679511184},
	{-0.204967925087, 0.049487960884, -0.0208202070723, 0.0355126954608, -0.0108862107433, -0.000474503086156, -0.574005389501, 0.0357336780917, 0.0618851506753, 0.0723272223977},
	{-0.261046694074, 0.038776524152, 0.0913722236664, 0.0303544971237, -0.15509950411, 0.0205663245008, 0.242640631718, 0.190651949997, -0.135304880637, -0.387652063944},
	{-0.0186381639795, -0.0117503611023, -0.0031705331927, -0.0141758804425, -0.00905194399733, -0.00608682452352, 0.00459238573177, -0.019262531571, 0.0145112654174, 0.0101829960133},
	{-0.276338005895, 0.120147823085, -0.318194032663, -0.357023612889, 0.0999560166948, 0.131667139456, 0.00872475396666, -0.0687485689638, -0.00299495726954, 0.231833094603},
	{0.027463871308, -0.128761226307, -0.149197633186, -0.261405520584, -0.0524116640265, 0.167760569159, 0.111131900527, 0.17036624219, 0.0880975381201, -0.173028621471},
	{-0.0748083545728, -0.185076408875, -0.0803782360227, 0.0827139033419, -0.0929468899574, 0.145190132333, -0.320462970188, -0.0400364943269, 0.0104670487208, 0.195214550666},
	{0.0358148010181, -0.0118555218627, 0.0042859606171, 0.0758244983599, -0.011647170075, -0.355470884446, -0.0311358132718, -0.0185585541053, 0.0390615646331, 0.126916902887},
	{-0.0693559884072, 0.0569751603773, 0.145628222511, 0.011623039448, 0.140007818023, -0.415280390644, -0.410239162513, -0.0617450520094, -0.0347766023003, 0.195419474752},
	{0.113775776125, -0.103282233986, 0.0134387715992, -0.208684884748, 0.180152226379, -0.0951532904501, 0.109310895147, -0.147864852926, 0.0830067326289, -0.202685586201},
	{-0.199522476565, 0.0930043162199, -0.10533312932, -0.238653693174, 0.161799923452, 0.0493077887512, 0.0993550422126, -0.337832155686, 0.0367462040714, 0.0638172962524},
	{-0.0175897308159, -0.00676026503976, -0.248427370138, 0.0717708686332, 0.118695994429, -0.128941389666, -0.0925554725909, 0.020690887833, -0.0295339460401, 0.081642074229},
	{0.0783911668203, -0.296443497353, -0.201983012101, 0.159295775841, 0.0141691007772, -0.0327242872592, 0.0408289924216, -0.00633470272724, 0.0220083243008, -0.0224808628586},
	{-0.0378253136068, -0.157385912309, 0.0330938952664, -0.10524969899, -0.417561872504, 0.133183677637, 0.00428088307296, 0.214070109948, 0.00127439679147, -0.02098002087},
	{-0.27192671242, 0.0209541351571, -0.0831666367977, 0.220656773478, 0.0974459402706, 0.0810133960833, -0.293342406586, 0.0351266785184, -0.184660685339, 0.0566241417915},
	{-0.00233006956891, -0.000935629661989, 0.000546942399342, 0.0369196098801, 0.00615883591628, 0.00993333600159, 0.000364353944167, -0.0137122917517, -0.024661723573, -0.0019383782438},
	{0.0334477977425, -0.284595263529, 0.0712719732164, 0.045996613038, -0.0375049097545, -0.0170018136428, -0.0252396369367, -0.217747687001, 0.0162029388191, 0.11892421042},
	{0.118453604096, -0.0523792257382, 0.105472190686, 0.159781463186, 0.12204697671, 0.0526804764207, -0.0417476332856, 0.121175620369, -0.297924418751, -0.286863244672},
	{0.0717950975255, -0.0510416281778, 0.00860225352573, 0.0559377043226, -0.523653052095, 0.0984347740193, -0.17275402631, 0.0696660622188, 0.0340669209449, 0.00595476052654},
	{0.137443684349, -0.0822729666999, 0.0942628342731, 0.101312760044, 0.114486787992, 0.088917929691, 0.0709763823351, -0.507581233134, -0.211949664819, -0.291283035102},
	{0.000984291563501, -0.00440591147414, -0.0109730991388, -0.000611150240677, 0.00736677171751, 0.012527622823, -0.00960715263156, -0.00615774181627, -0.0015804012007, -0.000715294052279},
	{-0.335040717332, 0.096203134389, 0.0211847667602, -0.154094855596, 0.104974565764, 0.122564861706, 0.20170758362, -0.223805708146, -0.325502703339, 0.185986776468},
	{0.0908288519698, -0.0632146518541, 0.113490044044, 0.125081370562, -0.119269281844, 0.0806346169794, -0.0781218044, -0.130295348847, -0.357190408235, -0.00680288128327},
	{-0.150775227963, 0.0491951680211, 0.0911611755961, 0.0770865958481, -0.0732155352008, -0.112116301538, -0.0585312278304, -0.136496763515, 0.00067998326005, 0.0856852069102},
	{-0.0245463196868, 0.0133091432491, -0.017501896565, 0.00577666679505, -0.0257010837018, 0.00479832730645, -0.0194828907209, -0.00509340348787, 0.0101716260274, -0.0191033401921},
	{0.00312413010874, -0.00618477963153, -0.00620461495547, -0.00434070991315, -0.0280200222925, 0.00623648617552, -0.000213970665428, 0.0192271632326, -0.0136489301909, -0.00582268005328},
	{0.0162003122572, 0.0459408740733, -0.418782675149, -0.0982178686024, 0.167984091448, -0.0205977164238, 0.117666573912, -0.066091304212, 0.0400671585833, 0.0758390636587},
	{-0.084122501306, 0.0993357669539, 0.172501519594, -0.424262965072, 0.148115794526, -0.357286109809, 0.0299249587029, 0.229311333483, -0.11957332628, -0.0234847520865},
	{-0.168453352799, 0.32338836964, 0.143403119238, -0.217518122274, 0.227996996142, 0.160469697486, -0.0488668179699, -0.301965328215, -0.117457506434, -0.210644681039},
	{-0.00775404496154, -0.00999048889944, -0.00770661966592, -0.00485114438242, -0.0281187027737, -0.000734389220625, -0.00845697755636, 0.00449685650399, -0.0228343261657, -0.0182354982103},
	{0.0069268800763, -0.00020282197592, -0.0910651112306, -0.0267785776674, 0.0404278074503, 0.00174990269413, 0.00343320345956, -0.000387681464776, -0.036016176177, -0.0229253784991},
	{-0.217307245275, -0.118867127638, 0.0027533522651, 0.107466909751, 0.108644154054, -0.0305253241306, -0.516032271384, 0.0275396479387, 0.0278619547924, 0.0801875864453},
	{-0.298255472166, -0.0434856303847, -0.175568252259, 0.103693858578, 0.0817973139515, 0.020719954333, -0.226071184733, 0.0376833196298, 0.00684283650962, 0.0872375683616},
	{0.00787391657314, -0.00610164759761, -0.00276581903617, 0.00216395708256, 0.00268065055568, 0.00514244625962, -0.00417014299173, -0.00352478676596, -0.000534678642739, 0.0224753177557},
	{-0.0124037235688, 0.000819779199408, 0.00970530597339, -0.00423149365056, -0.0170089589114, -0.00102042269287, -0.00396681229613, -0.0084891554883, 0.00528747469959, -0.00071668881723},
	{0.0670459776175, 0.034883716609, -0.0299158911311, -0.00569114285592, -0.47228423405, 0.0370072131204, 0.117561058742, -0.30196691919, 0.0666569269578, -0.0070961628291},
	{-0.172911533581, 0.0640690086088, 0.154567980221, 0.124449478324, -0.50293202858, -0.14846984544, -0.496276688269, 0.185138784394, 0.0410691051784, 0.00314935363441},
	{0.0692248899652, 0.0142296228666, 0.062017330612, -0.198934343682, 0.0613381362589, -0.151675427522, 0.0156571198852, 0.21467382947, -0.40680554707, 0.0938820878584},
	{0.0478197944614, 0.0192031399767, -0.0358827528048, 0.0917326635756, -0.021973705553, -0.00297076846492, 0.0506321983087, -0.254022320903, 0.103434071237, -0.149835860577},
	{-0.119828676328, -0.00231497032067, 0.0220881294119, -0.0201352636038, 0.137360014398, -0.069256741281, 0.0913321936111, -0.135163776123, 0.0855162805344, -0.182983209996},
	{-0.576193943878, 0.0256399047305, 0.131858893246, -0.00550456758161, 0.175054744036, 0.0923868949509, -0.23529519073, -0.0247810585428, -0.0231903086563, -0.026566007925},
	{0.187414872998, -0.0630982435215, -0.0845327663505, -0.12708307665, -0.194789579986, -0.00295718984495, -0.031773919238, 0.219844889507, -0.0391463434163, -0.105418819492},
	{0.0151737113777, 0.0206786713733, 0.0691485901128, -0.271060517304, 0.114928828947, 0.0184954797048, 0.0605552274229, -0.285998885521, -0.00470206057233, 0.111939336299},
	{0.175660056133, 0.168029219902, 0.235462921051, -0.0875736927757, -0.26470706419, -0.184019836267, -0.1092957893, 0.160340909398, -0.106900593381, -0.295592462945},
	{0.175474412174, -0.0790067288396, -0.127973336651, -0.337068004969, -0.11144613974, 0.019291208781, -0.285289965321, 0.232990212187, 0.184045455504, 0.00769501610425},
	{0.186869979384, -0.146557105232, 0.0411768975978, -0.160400163066, 0.02319705648, 0.208571414366, -0.482137362794, 0.0738922187932, -0.135633684439, 0.0498239894105},
	{0.0495291928259, -0.19719553714, 0.18300819375, 0.0341145810685, -0.0815349096494, -0.0225272532231, -0.191980118847, 0.133330534026, 0.0188050857893, -0.280284812468},
	{-0.147013788263, 0.0638324417193, -0.110358801776, 0.291985513017, -0.375358088772, 0.0558261391609, -0.123313356636, -0.0732862397806, 0.0851363317521, -0.0672454404785},
	{0.00553000947652, 0.00995633567796, -0.00278163828521, -0.0038165601457, 0.0179155973435, -0.000301870050795, -0.0106330019436, 0.000845483523224, 0.00912749786414, 0.00964519252442},
	{0.0091768804855, -0.41004787055, -0.0503109123052, 0.147600470783, -0.426974668494, 0.132590704527, 0.113736370233, -0.366901983328, -0.0352275856925, 0.177550298304},
	{0.0728247721657, 0.0836248555694, -0.155575742834, -0.450984722678, 0.111220325882, 0.130204067157, 0.089720376305, 0.208935588182, -0.0136285065652, -0.137375857279},
	{-0.0652409073729, 0.00954915733061, -0.292431706952, 0.0520831553782, -0.0759976009017, 0.294034433506, -0.0369930456131, -0.358173984346, 0.0752183138214, -0.0384934264787},
	{0.067094611353, -0.0706373358209, 0.00153510159861, -0.173505816702, 0.129799981383, -0.0836234862842, -0.248474280917, 0.0476065705158, 0.0370986893378, 0.0496401642079},
	{-0.105632203862, -0.0318889963588, -0.412639529063, -0.215740676957, 0.0944716447854, 0.201539106019, 0.140765238227, 0.113751364529, -0.0824992423139, -0.0130503043886},
	{-0.0177716167942, -0.00834511540004, 0.0851867238975, 0.130603188237, -0.0237245337333, -0.588436145447, -0.0883608807168, 0.0301724573387, 0.0643719700679, 0.0858308407641},
	{0.00308576205118, -0.010944765742, 0.0109509341624, -0.000264642163886, 0.0149718119204, -0.00436855531031, -0.0097616466425, -0.00823293792973, -0.000548458104802, 0.000718450201634},
	{0.0468118289021, 0.117934151112, 0.144899751109, 0.0330631735962, 0.101408817673, -0.515946694459, -0.0113004811337, 0.0836588015427, -0.222049668159, 0.0102858878885},
	{0.077441790187, 0.250881948654, 0.08321022688, 0.0171390001996, -0.313744438294, 0.154838535572, -0.117724637341, -0.291814497275, -0.286452820338, 0.0821127122212},
	{-0.0112310529283, -0.196180560079, -0.0870074484969, 0.142190330725, -0.179972888374, -0.0268482123398, -0.248868627969, 0.064710221374, 0.0632471968676, 0.0886592851012},
	{0.0179340667148, 0.0639955329048, -0.0816440435868, -0.170674477083, -0.514782856415, 0.156517617814, 0.213458309673, 0.167977765808, -0.00811354905949, -0.27504820397},
	{0.000695448563845, 0.177675152954, 0.152037025469, -0.158398078832, -0.350865436014, -0.0858347701924, 0.204876378943, -0.361004634353, -0.00062980343068, 0.00995758189257},
	{-0.19391939885, 0.0761547172614, 0.134130159253, -0.104353297084, 0.0593860690455, -0.00425121069705, 0.0665558645484, 0.27124154301, -0.0805969716457, -0.483127398369},
	{0.287330023694, 0.0568439681587, 0.0963031490827, -0.118670808249, -0.0335827337298, -0.347383299386, 0.123333154631, -0.0742472612617, 0.241905519748, -0.350977765717},
	{-0.0131553242165, 0.00626162557357, -0.0235501380331, -0.011990201857, -0.000128674533339, 0.00596775904022, -0.00338190700009, -0.0110003402782, -0.0304332840405, -0.0128080127346},
	{0.0229634945806, 0.0121427396418, -0.0103337358405, 0.0164109116149, -0.048793503764, -0.0710814674736, -0.0166525267226, 0.00434755840106, 0.0142056788087, 0.0281365625283},
	{0.0128699893517, -0.167727745154, -0.00199301648502, 0.0362632409976, 0.0660046862736, 0.04791842588, 0.0633436278943, -0.214587062781, 0.0568627965202, -0.0520801932312},
	{-0.0322750873909, -0.0323392080789, -0.0188565685693, -0.00237094741539, 0.0033411531889, -0.0350791997998, -0.0124169029532, -0.00293257496034, -0.0319668791772, 0.0131523117141},
	{-0.426238256776, -0.0190843006929, -0.0681937279605, -0.338348320383, 0.144090101062, -0.0565422339212, -0.00358792638989, -0.00732878243412, 0.202629375, 0.0864500854307}
};

const ap_fixed<9, 1, AP_TRN_ZERO, AP_SAT> af2_weight[100][10] = {
	{-0.4140625, -0.046875, -0.42578125, 0.125, 0.13671875, 0.09765625, -0.1875, -0.015625, 0.0390625, 0.09375},
	{-0.0390625, -0.3046875, -0.01953125, -0.12890625, 0.0078125, 0.08203125, 0.140625, -0.12109375, 0.0859375, 0.0703125},
	{-0.0234375, 0.01953125, 0.1015625, -0.16796875, -0.12109375, -0.20703125, 0.16796875, -0.2265625, 0.08984375, 0.15625},
	{-0.2734375, 0.0390625, -0.24609375, 0.0078125, 0.05078125, 0.07421875, 0.00390625, 0.04296875, 0.15625, -0.078125},
	{0.12109375, -0.15234375, 0.0859375, -0.23828125, -0.0078125, -0.17578125, 0.09765625, 0.171875, -0.58203125, 0.1171875},
	{-0.4921875, 0.0, -0.13671875, 0.0390625, 0.05078125, -0.0078125, -0.2890625, 0.0703125, 0.1171875, 0.12109375},
	{0.01953125, 0.01171875, 0.046875, 0.01953125, -0.09765625, 0.0, -0.03125, -0.015625, -0.03515625, 0.00390625},
	{0.21875, 0.1875, 0.08984375, 0.0, -0.32421875, -0.234375, -0.046875, 0.1015625, -0.09765625, -0.0625},
	{0.03125, -0.0078125, 0.0, 0.0, 0.00390625, -0.02734375, -0.00390625, -0.00390625, 0.0, -0.03515625},
	{0.11328125, -0.28515625, 0.15625, -0.09765625, -0.22265625, 0.0234375, -0.0703125, -0.2578125, 0.12109375, 0.0703125},
	{-0.30859375, 0.28125, -0.078125, -0.28515625, 0.04296875, 0.26171875, -0.0546875, 0.18359375, -0.42578125, -0.04296875},
	{0.05859375, -0.1328125, 0.05859375, -0.1640625, 0.0546875, -0.0546875, -0.09765625, -0.03515625, 0.109375, 0.0703125},
	{0.015625, -0.27734375, 0.10546875, -0.0546875, -0.12109375, 0.03515625, 0.1328125, -0.13671875, 0.09375, -0.04296875},
	{-0.1015625, 0.04296875, 0.0234375, 0.12109375, -0.15625, -0.10546875, 0.109375, -0.109375, 0.078125, -0.1640625},
	{-0.01171875, 0.16015625, 0.1015625, 0.03515625, 0.1171875, -0.12109375, -0.01171875, -0.27734375, 0.0625, -0.23046875},
	{0.06640625, 0.04296875, 0.109375, -0.046875, -0.05859375, -0.0703125, 0.01171875, 0.1953125, 0.0625, -0.55078125},
	{0.0859375, 0.21875, 0.0546875, 0.07421875, -0.23046875, 0.04296875, -0.125, 0.203125, -0.21484375, -0.18359375},
	{-0.02734375, -0.0078125, 0.01171875, 0.015625, -0.01171875, -0.015625, -0.03515625, -0.03125, 0.01953125, -0.02734375},
	{0.20703125, 0.0703125, -0.265625, 0.09375, -0.17578125, 0.0703125, 0.03125, 0.01953125, -0.28515625, 0.08203125},
	{0.30078125, 0.01953125, 0.15625, -0.13671875, -0.2734375, -0.265625, 0.03515625, 0.0, -0.0078125, 0.109375},
	{0.0078125, -0.125, 0.00390625, 0.05859375, 0.046875, -0.05078125, 0.12890625, -0.2734375, 0.0625, -0.03125},
	{-0.015625, -0.00390625, 0.0078125, 0.0, 0.0, -0.015625, -0.01953125, 0.0, 0.00390625, 0.0},
	{0.0, 0.0, -0.01171875, 0.0, 0.0, -0.015625, -0.00390625, 0.01171875, 0.0, 0.0},
	{-0.46875, 0.125, 0.03515625, 0.08984375, 0.1015625, 0.0390625, -0.1171875, 0.20703125, -0.12109375, -0.33984375},
	{-0.2734375, -0.0625, 0.12109375, 0.203125, -0.24609375, 0.1015625, 0.00390625, -0.28515625, 0.12109375, -0.1484375},
	{-0.0625, -0.14453125, 0.05078125, 0.21484375, -0.42578125, 0.14453125, 0.04296875, 0.04296875, -0.2890625, -0.15625},
	{0.11328125, -0.24609375, -0.09765625, 0.05078125, -0.24609375, -0.0234375, 0.0, 0.0390625, 0.03515625, 0.08984375},
	{0.13671875, 0.16015625, -0.04296875, -0.21484375, 0.171875, -0.25390625, 0.1484375, 0.0546875, -0.296875, 0.0234375},
	{-0.24609375, 0.11328125, 0.19140625, -0.00390625, 0.0, -0.0390625, -0.01171875, 0.11328125, 0.04296875, -0.57421875},
	{0.01953125, -0.2421875, -0.03515625, 0.03125, -0.2265625, 0.07421875, 0.09375, -0.14453125, 0.0703125, -0.0078125},
	{0.0, -0.3359375, 0.01953125, 0.0234375, 0.07421875, 0.0, -0.1171875, 0.0, 0.01171875, 0.0625},
	{0.03125, -0.3125, 0.0390625, 0.04296875, -0.15625, 0.0625, 0.0546875, -0.12109375, 0.06640625, 0.0078125},
	{0.06640625, 0.4375, -0.34765625, -0.453125, -0.296875, 0.06640625, -0.046875, 0.0625, -0.12109375, 0.04296875},
	{-0.19921875, 0.05078125, -0.015625, 0.03515625, -0.0078125, 0.0, -0.5703125, 0.03515625, 0.0625, 0.07421875},
	{-0.2578125, 0.0390625, 0.08984375, 0.03125, -0.15234375, 0.01953125, 0.2421875, 0.19140625, -0.1328125, -0.3828125},
	{-0.015625, -0.0078125, 0.0, -0.01171875, -0.00390625, -0.00390625, 0.00390625, -0.015625, 0.015625, 0.01171875},
	{-0.2734375, 0.12109375, -0.3125, -0.3515625, 0.1015625, 0.1328125, 0.0078125, -0.06640625, 0.0, 0.23046875},
	{0.02734375, -0.125, -0.14453125, -0.2578125, -0.046875, 0.16796875, 0.109375, 0.171875, 0.08984375, -0.16796875},
	{-0.0703125, -0.1796875, -0.078125, 0.08203125, -0.08984375, 0.14453125, -0.31640625, -0.03515625, 0.01171875, 0.1953125},
	{0.03515625, -0.0078125, 0.00390625, 0.07421875, -0.0078125, -0.3515625, -0.02734375, -0.015625, 0.0390625, 0.125},
	{-0.06640625, 0.05859375, 0.14453125, 0.01171875, 0.140625, -0.41015625, -0.40625, -0.05859375, -0.03125, 0.1953125},
	{0.11328125, -0.09765625, 0.01171875, -0.203125, 0.1796875, -0.08984375, 0.109375, -0.14453125, 0.08203125, -0.19921875},
	{-0.1953125, 0.09375, -0.1015625, -0.234375, 0.16015625, 0.05078125, 0.09765625, -0.33203125, 0.03515625, 0.0625},
	{-0.015625, -0.00390625, -0.24609375, 0.0703125, 0.1171875, -0.125, -0.08984375, 0.01953125, -0.02734375, 0.08203125},
	{0.078125, -0.29296875, -0.19921875, 0.16015625, 0.015625, -0.02734375, 0.0390625, -0.00390625, 0.0234375, -0.01953125},
	{-0.03515625, -0.15234375, 0.03125, -0.1015625, -0.4140625, 0.1328125, 0.00390625, 0.21484375, 0.0, -0.015625},
	{-0.26953125, 0.01953125, -0.078125, 0.21875, 0.09765625, 0.08203125, -0.2890625, 0.03515625, -0.1796875, 0.0546875},
	{0.0, 0.0, 0.0, 0.03515625, 0.0078125, 0.01171875, 0.0, -0.01171875, -0.01953125, 0.0},
	{0.03515625, -0.28125, 0.0703125, 0.046875, -0.03515625, -0.01171875, -0.01953125, -0.21484375, 0.015625, 0.1171875},
	{0.1171875, -0.046875, 0.10546875, 0.16015625, 0.12109375, 0.05078125, -0.0390625, 0.12109375, -0.29296875, -0.28125},
	{0.0703125, -0.046875, 0.0078125, 0.0546875, -0.51953125, 0.09765625, -0.16796875, 0.0703125, 0.03515625, 0.0078125},
	{0.13671875, -0.078125, 0.09375, 0.1015625, 0.11328125, 0.08984375, 0.0703125, -0.50390625, -0.20703125, -0.2890625},
	{0.0, 0.0, -0.0078125, 0.0, 0.0078125, 0.01171875, -0.00390625, -0.00390625, 0.0, 0.0},
	{-0.33203125, 0.09765625, 0.01953125, -0.1484375, 0.10546875, 0.12109375, 0.203125, -0.21875, -0.3203125, 0.1875},
	{0.08984375, -0.05859375, 0.11328125, 0.125, -0.1171875, 0.08203125, -0.07421875, -0.125, -0.3515625, -0.00390625},
	{-0.1484375, 0.05078125, 0.08984375, 0.078125, -0.0703125, -0.109375, -0.0546875, -0.1328125, 0.0, 0.0859375},
	{-0.01953125, 0.01171875, -0.01171875, 0.00390625, -0.0234375, 0.00390625, -0.015625, 0.0, 0.01171875, -0.015625},
	{0.00390625, -0.00390625, -0.00390625, 0.0, -0.0234375, 0.0078125, 0.0, 0.01953125, -0.0078125, 0.0},
	{0.015625, 0.046875, -0.4140625, -0.09375, 0.16796875, -0.015625, 0.1171875, -0.0625, 0.0390625, 0.07421875},
	{-0.08203125, 0.09765625, 0.171875, -0.421875, 0.1484375, -0.3515625, 0.03125, 0.23046875, -0.1171875, -0.01953125},
	{-0.1640625, 0.32421875, 0.14453125, -0.21484375, 0.2265625, 0.16015625, -0.046875, -0.296875, -0.11328125, -0.20703125},
	{-0.00390625, -0.0078125, -0.00390625, 0.0, -0.0234375, 0.0, -0.00390625, 0.00390625, -0.01953125, -0.015625},
	{0.0078125, 0.0, -0.0859375, -0.0234375, 0.0390625, 0.0, 0.00390625, 0.0, -0.03125, -0.01953125},
	{-0.21484375, -0.11328125, 0.00390625, 0.109375, 0.109375, -0.02734375, -0.51171875, 0.02734375, 0.02734375, 0.08203125},
	{-0.29296875, -0.0390625, -0.171875, 0.10546875, 0.08203125, 0.01953125, -0.22265625, 0.0390625, 0.0078125, 0.0859375},
	{0.0078125, -0.00390625, 0.0, 0.00390625, 0.00390625, 0.00390625, 0.0, 0.0, 0.0, 0.0234375},
	{-0.0078125, 0.0, 0.0078125, 0.0, -0.01171875, 0.0, 0.0, -0.00390625, 0.00390625, 0.0},
	{0.06640625, 0.03515625, -0.02734375, 0.0, -0.46875, 0.03515625, 0.1171875, -0.296875, 0.06640625, -0.00390625},
	{-0.16796875, 0.0625, 0.15625, 0.125, -0.5, -0.14453125, -0.4921875, 0.18359375, 0.04296875, 0.00390625},
	{0.0703125, 0.015625, 0.0625, -0.1953125, 0.0625, -0.1484375, 0.015625, 0.21484375, -0.40234375, 0.09375},
	{0.046875, 0.01953125, -0.03125, 0.08984375, -0.01953125, 0.0, 0.05078125, -0.25, 0.1015625, -0.14453125},
	{-0.1171875, 0.0, 0.0234375, -0.015625, 0.13671875, -0.06640625, 0.08984375, -0.1328125, 0.0859375, -0.1796875},
	{-0.57421875, 0.02734375, 0.1328125, 0.0, 0.17578125, 0.09375, -0.23046875, -0.01953125, -0.01953125, -0.0234375},
	{0.1875, -0.05859375, -0.08203125, -0.125, -0.19140625, 0.0, -0.02734375, 0.21875, -0.03515625, -0.1015625},
	{0.015625, 0.01953125, 0.0703125, -0.265625, 0.11328125, 0.01953125, 0.0625, -0.28125, 0.0, 0.11328125},
	{0.17578125, 0.16796875, 0.234375, -0.08203125, -0.26171875, -0.1796875, -0.10546875, 0.16015625, -0.1015625, -0.29296875},
	{0.17578125, -0.07421875, -0.125, -0.33203125, -0.109375, 0.01953125, -0.28125, 0.234375, 0.18359375, 0.0078125},
	{0.1875, -0.14453125, 0.04296875, -0.15625, 0.0234375, 0.20703125, -0.4765625, 0.07421875, -0.1328125, 0.05078125},
	{0.05078125, -0.19140625, 0.18359375, 0.03515625, -0.078125, -0.01953125, -0.1875, 0.1328125, 0.01953125, -0.27734375},
	{-0.14453125, 0.0625, -0.10546875, 0.29296875, -0.37109375, 0.0546875, -0.12109375, -0.0703125, 0.0859375, -0.0625},
	{0.00390625, 0.01171875, 0.0, 0.0, 0.01953125, 0.0, -0.0078125, 0.0, 0.0078125, 0.0078125},
	{0.0078125, -0.40625, -0.046875, 0.1484375, -0.421875, 0.1328125, 0.11328125, -0.36328125, -0.03125, 0.17578125},
	{0.07421875, 0.08203125, -0.15234375, -0.4453125, 0.109375, 0.12890625, 0.08984375, 0.20703125, -0.0078125, -0.1328125},
	{-0.0625, 0.0078125, -0.2890625, 0.05078125, -0.0703125, 0.29296875, -0.03125, -0.35546875, 0.07421875, -0.03515625},
	{0.06640625, -0.06640625, 0.0, -0.16796875, 0.12890625, -0.078125, -0.24609375, 0.046875, 0.03515625, 0.05078125},
	{-0.1015625, -0.02734375, -0.41015625, -0.2109375, 0.09375, 0.203125, 0.140625, 0.11328125, -0.078125, -0.0078125},
	{-0.015625, -0.00390625, 0.0859375, 0.12890625, -0.01953125, -0.5859375, -0.0859375, 0.03125, 0.0625, 0.0859375},
	{0.00390625, -0.0078125, 0.01171875, 0.0, 0.015625, 0.0, -0.00390625, -0.00390625, 0.0, 0.0},
	{0.046875, 0.1171875, 0.14453125, 0.03125, 0.1015625, -0.51171875, -0.0078125, 0.08203125, -0.21875, 0.01171875},
	{0.078125, 0.25, 0.08203125, 0.015625, -0.30859375, 0.15625, -0.11328125, -0.2890625, -0.28125, 0.08203125},
	{-0.0078125, -0.19140625, -0.08203125, 0.140625, -0.17578125, -0.0234375, -0.24609375, 0.06640625, 0.0625, 0.08984375},
	{0.01953125, 0.0625, -0.078125, -0.16796875, -0.51171875, 0.15625, 0.21484375, 0.16796875, -0.00390625, -0.26953125},
	{0.0, 0.17578125, 0.15234375, -0.15625, -0.34765625, -0.08203125, 0.203125, -0.35546875, 0.0, 0.01171875},
	{-0.19140625, 0.07421875, 0.1328125, -0.1015625, 0.05859375, 0.0, 0.06640625, 0.26953125, -0.078125, -0.48046875},
	{0.2890625, 0.05859375, 0.09765625, -0.11328125, -0.03125, -0.34375, 0.125, -0.0703125, 0.2421875, -0.34765625},
	{-0.0078125, 0.0078125, -0.01953125, -0.0078125, 0.0, 0.0078125, 0.0, -0.0078125, -0.02734375, -0.0078125},
	{0.0234375, 0.01171875, -0.0078125, 0.015625, -0.04296875, -0.06640625, -0.01171875, 0.00390625, 0.015625, 0.02734375},
	{0.01171875, -0.1640625, 0.0, 0.03515625, 0.06640625, 0.046875, 0.0625, -0.2109375, 0.05859375, -0.046875},
	{-0.02734375, -0.02734375, -0.015625, 0.0, 0.00390625, -0.03125, -0.0078125, 0.0, -0.02734375, 0.01171875},
	{-0.421875, -0.015625, -0.0625, -0.3359375, 0.14453125, -0.05078125, 0.0, -0.00390625, 0.203125, 0.0859375}
};
