// af1_weight.h
// 2017/06/14 10:48:46 by marsee

const float af1_fweight[1440][100] = {
	{0.0557770308299, -0.16092569362, -0.0601467607466, 0.119130381701, 0.0882603594265, 0.190393946591, -0.00266175743642, 0.0726814929856, 0.00790669080139, -0.0877731234688, -0.0123784300422, -0.254751915036, -0.113294588459, 0.209937750293, -0.0540670170905, -0.0428180473012, -0.0169645801319, -0.00461940282427, 0.130460521368, -0.091248936047, -0.0209588816098, 0.0120494610044, 0.00618530864109, 0.161610835599, 0.101451379979, 0.0444504918079, 0.0467556811266, -0.0850111061918, 0.00649590406874, 0.0149663653554, -0.106088657257, 0.0359921206042, 0.2506068797, 0.245461842911, 0.203886072544, -0.00306221939152, 0.0317338239232, -0.251102780416, 0.049861098816, 0.159583368541, 0.224272114446, -0.245249521909, 0.0653453082525, 0.0394228021816, 0.0527227113016, -0.0637346056341, -0.0692466346941, 0.0613711927168, -0.143742757121, -0.0525009440797, 0.130814556362, -0.0965739915913, -0.0122074994844, -0.104536998728, 0.018025600019, 0.13885544098, 0.0145303763331, -0.00299366104868, -0.00374303678811, -0.015018188587, 0.027545305002, 0.00222177766002, 0.0014893506205, 0.0373925359155, 0.0576538596955, -0.00843599963159, 0.000576047041087, 0.067720571476, 0.0445795890113, -0.166372184009, 0.22027619432, 0.0458523806296, 0.111004106586, 0.0044455707976, -0.13307652928, 0.0561183621221, -0.0511620508656, -0.17978869421, -0.143653994751, 0.189667818246, 0.00131447580303, -0.162612641403, -0.149142821494, 0.185622027931, -0.203448085038, 0.0365307253222, -0.0835380359376, -0.0328632520252, 0.259667556618, 0.150203993254, 0.0464986771167, -0.237945751951, 0.0720458396555, 0.0672353068947, -0.0591716892926, 0.0132951371106, 0.00120266501518, -0.0869658744563, 0.0122468798805, -0.10659602299},
	{-0.00277293431892, 0.0623154787638, 0.229979988273, -0.0182889358308, 0.201073924703, 0.0690381563836, -0.0339797031553, -0.137893886286, -0.000294467578613, -0.0208866356334, -0.0650492054963, -0.198949731638, 0.0933525014588, 0.320805001481, 0.0503292974563, -0.0130093130379, 0.0863635907043, -0.00556864181268, 0.237247009842, -0.0732420345308, 0.169332138134, 0.00509495580833, -0.00136610346598, 0.1161557101, 0.158281356669, 0.000809589809335, -0.0309389068948, -0.0523518166366, -0.0350091891155, 0.207447167396, -0.273433467576, 0.156626054413, 0.0177384130444, 0.0501449544008, 0.544869596356, -0.00875280811317, -0.067379969082, -0.131658738331, 0.0264095412493, 0.105583755934, 0.0178426888404, -0.1261589565, -0.0360485053491, -0.157927769002, 0.0930759795342, 0.00470664348892, -0.211030415478, 0.110065494339, 0.0154584766638, 0.0068542817228, 0.105647984809, -0.0813991401901, 0.00829172137519, 0.175214285231, -0.00594762237165, 0.0892559259942, -0.0126435689685, 0.00106381291161, 0.0187768138142, 0.101277134626, -0.0282966888879, -0.00700737753063, 0.0250218512352, -0.0656873326846, -0.0165949025968, -0.00297555850355, 0.0100773844625, 0.172153740946, -0.0330327050724, -0.0910506077437, 0.171351493571, 0.15543895993, -0.141506300253, -0.119762725852, -0.120141362834, -0.0556436899182, -0.144042317065, -0.431566738594, -0.0864077642507, 0.278124830131, -0.0147750683896, 0.0608331025995, -0.102682943479, 0.0104055491435, -0.353221817993, 0.0201099019237, -0.199161103959, 0.00112656849163, 0.0715017603985, 0.169776578223, 0.00187232177619, -0.146638816867, 0.202093552662, 0.0811872114359, 0.115315047116, -0.000878711396145, -0.0243771073927, -0.0127217751387, 0.00628084649078, -0.137701318176},
	{-0.239578928939, -0.0463855097679, 0.119381893163, 0.104946714784, 0.252797823753, 0.0898527922966, -0.0458816989995, 0.128186407135, 0.00927143271454, 0.081191880781, 0.0164524430828, -0.12616306227, 0.0793218860075, 0.309929062534, 0.0851442717673, 0.118186979602, 0.0168576066606, 0.00466154671141, 0.0927544916743, 0.0829270878822, 0.220431821733, -0.0183000485644, -0.00478376150514, 0.00850296474807, 0.133912534339, -0.0647136467079, 0.138593275858, -0.0551778600804, -0.116845750476, 0.166889143359, -0.403353277716, 0.12976598674, -0.0614994202933, 0.0544163865509, 0.289166817054, 0.00442174569625, -0.290524702218, -0.065422271207, -0.0529844108423, 0.364022379984, 0.0129954416731, 0.0498314580464, -0.147253336978, 0.0612520724741, 0.186812013893, -0.0437465650031, -0.0502790228313, 0.0292701069675, 0.114150286724, -0.0121365530957, 0.144276674412, -0.176652651263, -0.0305220254302, 0.06539879351, -0.0257137427205, 0.162754228867, -0.0113467818914, -0.0127357107498, -0.231742557044, 0.125323613779, -0.0692015184713, -0.00727660143664, 0.0583605641885, -0.1022837299, -0.109180687123, 0.00167346877455, 0.00483059209029, 0.256773689701, 0.107246802592, -0.0266913051153, 0.27612051931, 0.159171412898, -0.250782288589, -0.167014431798, -0.07084858898, -0.0731426341072, -0.125225237793, -0.512608594875, 0.0887043925949, 0.230623563957, 4.76348168088e-05, -0.0709326711883, -0.454033531754, -0.0551571857199, -0.184688102008, 0.0123477204378, 0.00887693350168, 0.00092702959204, 0.0143113526471, 0.0676690739369, -0.087502669125, -0.28635871901, 0.00955157424772, 0.0374501921134, 0.195535607794, -0.00974611902388, -0.0131364078614, 0.0669623784782, 0.0116152492169, -0.196651790557},
	{-0.191892590925, -0.132379263615, 0.119976428126, 0.0638769626005, 0.177550699688, 0.0764730421328, -0.0462754111093, 0.121111570519, 0.00437585194641, -0.109012104317, 0.157597032635, -0.0571448093044, 0.113356407127, 0.107667660864, -0.0568506260875, 0.178026117377, 0.0591135715516, 0.00658204589405, 0.0836016321915, 0.161869772648, 0.121252304499, -0.0156223996025, -0.00158537592339, 0.0773365646497, 0.0349280942954, -0.0236764471456, 0.117923550511, -0.0754678531418, -0.0638110770347, 0.150084097536, -0.337895622701, 0.151823724597, -0.0785162655337, 0.0624846543331, 0.0600719629385, -0.00143107893547, -0.252079319966, 0.134947791368, 0.00854407263408, 0.152758122558, 0.0303249552113, 0.101938418433, -0.0306863933842, 0.0297711970839, 0.0626815038712, 0.109053255431, -0.138060163555, -0.0226113382557, 0.0510732161953, 0.0128811333648, 0.271005621507, -0.0133482704543, -0.000915945151928, 0.165220510732, -0.00355848908156, 0.0435867061483, -0.000999065234987, -0.00200915510063, -0.140693078684, 0.115391165391, 0.0151737545375, 0.0102163837905, 0.0632772921953, -0.115944946057, -0.131154786107, 0.00302353958601, 0.00411988566553, 0.219000453095, 0.16875917459, -0.077868553501, 0.137852961025, -0.00271319279156, -0.132842106508, -0.0658934085236, 0.0506627222579, -0.0730410261074, -0.0828266986841, -0.337444089049, 0.178898697412, -0.0420159015096, 0.018079764767, -0.17380214555, -0.325297357157, -0.0774417277914, -0.075678236308, 0.187384869688, 0.0218390703103, 0.0114493382131, -0.0942916736415, -0.0159701778017, -0.153672592076, -0.072675161135, 0.0126338030339, 0.136847405382, 0.158121616728, -0.00141891441318, -0.0623269268384, -0.00884930842658, -0.00072211600005, -0.189083368249},
	{-0.121027817049, -0.0855315916265, 0.00246599749857, -0.0527246832216, -0.0869004782822, -0.0545517560291, -0.0728063409541, 0.0919441985827, -0.00926421791941, -0.244544002747, 0.0906283474874, -0.0391826098618, 0.136370018713, 0.109619916043, -0.0685766041857, -0.0954314566268, 0.0353599855988, 0.00145457613851, 0.0737886825234, 0.0500777214405, 0.056677422785, -0.0152821043831, -0.0149108766098, 0.0599188553386, 0.111702512181, 0.106313458648, -0.0545165427854, -0.0970816621375, -0.117246689142, 0.0609662088902, -0.156638424036, 0.153700430833, -0.14510654382, 0.0327078121764, 0.0761491368703, -0.00469789536204, -0.0872648009474, 0.084100031624, 0.0464553553693, -0.0421879938007, 0.126202274101, -0.00438852747508, 0.0947637960522, 0.0175444148524, -0.0218608078174, 0.0964625653443, -0.270653537773, -0.0544674445687, 0.0862652629346, 0.0782797231812, 0.168931084212, 0.0992511948554, 0.00836070428771, 0.0574231312824, 0.145417209041, 0.103692537897, -0.00242115836315, 0.00752799453461, -0.0353713509, 0.0398591068551, -0.0151602460803, -0.00674725135251, 0.0106119175263, -0.170367509244, -0.123483997397, -0.00912072159824, 0.0127614634766, 0.121073233481, 0.276247680529, -0.0713491380975, 0.074086123701, 0.0845457010664, 0.00642718550703, -0.179664421014, -0.00508316242984, 0.0498940968344, -0.23098542302, -0.324367470862, -0.12046687135, -0.0947694524012, -0.0119012815908, -0.130665773919, -0.152398556102, -0.0462157079933, -0.190949927262, 0.129528900956, -0.106850802609, -0.00858563231894, 0.125714575647, 0.123782815933, -0.0452096493176, -0.0701133217978, 0.188998919692, 0.148156199587, -0.0159759185822, -0.0101828679576, -0.0799986916003, -0.0770490084424, -0.0115583632897, -0.0771028557369},
	{-0.150029300595, 0.14626821966, 0.106102280094, 0.118864295266, -0.129902846668, 0.0504684854153, -0.052228524125, 0.0376317734259, -0.0174565789902, -0.0883977868867, -0.00841854173136, 0.0345390741085, 0.0772434457674, 0.0452082953985, 0.00508783787873, -0.0898254779696, 0.0280614408644, 0.016733279813, 0.152887879162, 0.0271678387879, 0.0622626030111, -0.00504960987055, -0.0115062225716, -0.028897692124, 0.0288697644855, 0.023775255221, 0.0851389001215, 0.0520466204011, -0.174754463834, 0.07476466087, 0.0104468451235, -0.0118916300789, -0.361927513633, -0.0207592979514, 0.0336484412105, 0.00195600481618, 0.0944230286288, -0.000501942502091, 0.00825159933957, -0.0281590200068, -0.0720432801073, 0.0704114278043, 0.105258851787, 0.0535524779957, 0.0141218070452, -0.201297859034, -0.521291246064, -0.0695344615229, 0.0574031828834, -0.0894126773783, 0.036328967486, -0.0990739283614, -0.0170482147081, 0.023250353395, 0.0252700110132, -0.0337759532293, -0.0132345169642, -0.00808978169913, 0.0593907542914, 0.026631771355, -0.24442545164, 0.0118126565737, 0.00522826827168, -0.0990198057077, -0.0588255019153, -0.0176324025198, 0.010933054795, 0.0799391253414, 0.152805192733, -0.11232898479, 0.0709566497645, 0.119764689812, -0.00910113706653, -0.137024063541, -0.0124381487706, 0.0121839585187, -0.0575833961109, -0.22945646229, -0.229210881477, -0.100476611498, -0.00681268247352, 0.119689664732, 0.111310566759, 0.0971639561327, -0.136292486496, 0.0304785788042, 0.02073573357, 0.00556276468176, 0.0545328577512, 0.0303208727735, 0.158260378972, -0.144737612804, 0.116517357979, 0.0923266297189, -0.110535543304, 0.0289469736311, -0.0801534970479, 0.0157309908555, -0.0059018955672, -0.0553831668178},
	{-0.0798335231357, 0.111990406312, 0.0498211334223, 0.203551292768, -0.0607341245535, 0.210010976145, 0.0128303645916, 0.197451885772, -0.012274878121, -0.0367093563832, 0.00689759263027, -0.00400035365708, 0.0268188439695, 0.0105936429249, 0.0164078172108, -0.0120568743298, 0.0192343720385, 0.0290045691302, 0.0508973909585, -0.0702235883357, 0.0266138581715, -0.0130829261933, 0.0028806547752, 0.0936114977582, -0.0123710481827, -0.034640406496, 0.128400800295, 0.0701126247563, -0.0886099793787, 0.00676566407682, 0.0365988977547, -0.108236150396, -0.19434115891, 0.0144098467318, 0.0790479444833, -0.00627049889337, -0.0177376853178, -0.105596511625, -0.0938539769514, 0.0223354562839, -0.0413118961552, -0.0463589279179, 0.00391127792168, -0.0328309908457, 0.0917104122607, -0.209974298094, -0.279577103769, -0.0524184729661, -0.0495324872014, 0.022788620471, -0.0535989730018, -0.0122931794075, 0.000978989048787, -0.0705782773448, -0.0189591573227, -0.0615844280962, 0.00637407758872, -0.00973119706334, 0.0162291577355, -0.00874573046519, -0.239000904231, -0.0194191341961, -0.0238774936045, 0.00775893378416, 0.0212776634924, -0.0102417031139, 0.00359672075609, 0.0692572926619, 0.199716624534, -0.0877888494674, 0.136424329989, 0.00198616967017, 0.00111323475574, -0.00653806784404, -0.122574857632, 0.0336058061983, 0.0133931986153, -0.056529258596, -0.143276968843, -0.0317194200998, 0.00307275711256, 0.0725125600098, -0.0744423112013, 0.14757404735, -0.0437348602697, -0.0596860202981, 0.0527494167296, -0.0191717352976, -0.0307318337171, -0.0709629088464, 0.0556514871912, -0.14178654143, -0.0607035597754, 0.043684205013, -0.0109771368371, -0.0106703343316, -0.0716239334398, 0.0901858649923, 0.00411825476888, -0.123983659467},
	{0.0411797156546, 0.054426084758, -0.047375232979, 0.189237819481, -0.0950477799054, 0.138348348968, 0.0110776456762, 0.13828203272, 0.0017997772526, 0.0561990665096, 0.00776051673369, -0.0558227029258, -0.0757327820325, 0.0139900899977, -0.0632782820552, -0.0561079249521, -0.0213924037486, 0.00762705742969, 0.00121673010823, -0.106043659101, -0.0540788792202, -0.0111045754097, -0.00245219068522, 0.0988269245192, 0.133194228677, -0.0188063297945, 0.0351335261861, 0.01182734876, -0.0277330437565, 0.0171700986425, -0.0280552781851, -0.0160739488048, -0.00976078411202, -0.0467607477254, 0.0956447803386, 0.0138800793959, -0.0870190312267, -0.0122529035614, -0.0925074744117, -0.0543614059046, -0.0959180827957, -0.129280774541, -0.0336918884858, -0.14128516092, 0.0366523235954, -0.0389300491395, -0.0979042380437, -0.00592363376414, -0.164303085795, 0.00389436499899, -0.00691850716162, 0.00704642118873, -0.00894170069668, -0.0446189021783, 0.0199954587991, 0.0116131966807, -0.00918447372934, -0.0223461802696, -0.0106079554373, -0.0823369065725, 0.0155688471791, 0.00255832137545, -0.0661198923615, -0.0114944187246, 0.0810831967415, -0.0131585432731, 0.00628890828246, -0.0121711185463, 0.182132802319, -0.19879943096, 0.094083577709, -0.070951271317, 0.0700353083533, -0.00529305257039, -0.0404384752763, 0.0492046115007, 0.0142124692402, 0.030001178215, -0.0460980266868, 0.109028003545, 0.00348567331307, 0.00233407075639, -0.187723486998, 0.21607781223, -0.0251737671773, 0.0870301174107, -0.0080179877986, 0.00892212202436, -0.163176876644, -0.0162713799658, -0.0814296083374, -0.012075190508, -0.0192655594838, -0.00937839072969, -0.0499535358292, 0.00155254818308, -0.0537569578062, 0.0308435771696, -0.00415447655065, -0.10454610902},
	{0.0865991047075, 0.020797608728, -0.0202050442266, 0.167657851725, -0.0916493433014, 0.00323285105874, -0.00170566584616, 0.0316559606747, 0.00493356248104, -0.0235329209595, -0.0773566412485, -0.0876800389078, -0.0654910711976, -0.0217874818367, -0.0471333764623, -0.0491064168468, -0.0662516170819, 0.00696801959763, 0.0234578413912, -0.111642484857, -0.0488368880904, 0.00248864978712, -0.00850306416995, -0.0536662126937, 0.0772757147778, -0.0307201890764, 0.0723685790627, 0.0819516157617, -0.085380840159, 0.11866805722, -0.0134998370256, 0.0196084310107, 0.00259653248986, -0.100644460148, 0.0765775845559, -0.0182672446837, -0.0120169195768, -0.0795272881105, -0.0205265017613, -0.006688343196, -0.107280224338, -0.0966946236479, -0.0243279797348, -0.0227334869072, 0.0202251762876, -0.0321364946793, -0.0953889987578, -0.0135641969267, -0.113273728981, -0.0247150276024, 0.0279464288484, 0.0363466361119, 0.000279899318465, 0.0599331660938, 0.0988733524889, 0.00438019796325, 0.012471411682, -0.0196492874017, 0.113669472778, -0.17413885894, 0.224186329928, 0.00119006827733, -0.0118606830773, -0.0466537992557, 0.0411427155463, 0.015586126629, -0.0115013689178, -0.0182049582263, 0.0606603715506, -0.198053084427, 0.0347149624107, -0.086937974406, -0.0849295568555, 0.0124403025078, 0.0787509227897, 0.0274368735186, -0.0952365200285, -0.156915953478, -0.0818451444428, -0.123094947556, -0.00865074052827, -0.0114129275526, -0.121688250099, 0.127722526897, -0.0783316928523, 0.224503622108, -0.0242473402318, -0.00262454313713, -0.216309555829, -0.0370270237873, 0.00997161428264, 0.0797458046551, 0.167628996967, -0.0570780859103, -0.0884401222679, -0.00311030141614, -0.0606264938521, 0.0257527577815, 0.00327797146093, -0.0688821847846},
	{-0.0418541839761, -0.0306286681276, 0.0246805786729, 0.0807638045399, -0.0616269568139, -0.0500617579779, -0.0560385797017, 0.035654645971, -0.00833228369944, -0.068434989691, -0.16269420068, -0.0909036052489, -0.0006829178223, 0.0558576279772, 0.0781396420398, 0.0624298770348, -0.161530006125, 0.00778695591422, -0.0394438437377, -0.0908754599808, 0.0580568097323, -0.0255198182611, 0.00694219652773, -0.142101624847, 0.165475676609, -0.113602828563, 0.106764465024, 0.172110878106, -0.0347909025996, 0.0707768125053, -0.0385633620702, -0.0312469648425, -0.106418941854, -0.140062499405, -0.0160604026368, -0.000437888734991, -0.0636452186796, -0.0383675442992, -0.0624593448717, 0.18284000838, 0.0147566363418, 0.00376523490155, 0.0485103023464, 0.116401160536, 0.0909438968826, -0.272207211171, -0.119027798864, 0.00286316283436, -0.1340528631, -0.0200020956069, -0.0386450185744, 0.0520960143041, -0.0129065022395, -0.0445947733584, 0.0508579644646, 0.0190637479042, 0.0115075479555, -0.000954272942151, 0.103236966857, -0.0284408941177, 0.124900339849, 0.0235807252729, -0.00699982703337, -0.172440670068, -0.0551904482633, -0.0109878697297, -0.0149476183158, 0.0711530614426, 0.035983195425, -0.223176512318, 0.110044721632, -0.000989210469441, -0.0936737402847, 0.0513146761229, 0.0614221021865, 0.0871868656616, -0.0840991904107, -0.41546233678, -0.073198675032, -0.322184895084, 0.0125925243087, 0.105257328552, -0.0144024747136, 0.0304921902149, 0.00937499678518, 0.109311435887, -0.0245077140397, -0.00131638055709, -0.22870059516, -0.152049865021, 0.0239890490012, 0.0331923668794, 0.0518010715786, -0.0203822226158, -0.108898763443, -0.018185228672, -0.0488770494583, 0.0129780423037, -0.0162730481614, 0.00751560825663},
	{-0.101832788024, 0.0153356166848, -0.00938456262092, -0.0651707474925, -0.157074927041, -0.0743644063954, -0.0651492412581, 0.0237429707808, 0.0108383484641, 0.0526962222313, -0.077020047898, 0.00713464331953, -0.0632604027968, 0.00456359225733, 0.162722318725, 0.0501615360012, -0.0332852082377, 0.000211888532991, -0.227602768129, -0.244772484577, 0.0769284006291, 0.0107035862361, -0.0157035450009, -0.106888478373, 0.28159319202, -0.0705503281622, 0.0230469745186, 0.029210464238, 0.068422020695, 0.030268171521, 0.0052015554755, 0.129557150869, -0.102955555755, -0.110299606029, -0.089608157521, -0.00869369129738, -0.132718195479, 0.113049912326, -0.0281940426015, 0.1626154878, -0.049845457533, 0.0907013593148, 0.125602297148, 0.133859330802, 0.0520582848855, -0.24976327568, -0.0346363026562, 0.0147689941151, -0.0846494243774, 0.0318166321031, 0.035894667652, 0.00846535316941, -0.00336737240594, -0.109587426219, 0.0674096824327, 0.0746232033062, 0.0122962578948, 0.0153783234119, -0.0852917432456, 0.0885712582125, -0.0180149726971, -0.020547535172, -0.024453693171, -0.183792138965, -0.141028115857, -0.00864184411399, -0.0139764861628, 0.0588196302992, 0.093566202606, -0.234482602925, 0.0517097283217, 0.0745078207943, 0.0803606976207, -0.003529219136, 0.0701274926815, 0.12303588752, -0.0851651923345, -0.280207750835, 0.167738722674, -0.258198898124, -0.00192592027544, 0.0814768300779, 0.113446832049, -0.0662272618089, 0.0709275962499, -0.143075126733, 0.091230728436, 0.0186516687469, -0.18440946535, -0.0712052345969, -0.0991073370033, 0.14677052099, -0.197311172973, 0.0918589276234, -0.09254523098, -0.0105080375306, -0.0251239701558, 0.0671157604734, -0.00285037123308, -0.000200695539881},
	{-0.156294998684, -0.0841987903184, -0.121101810642, 0.00799954224196, -0.0803016825451, 0.033695461068, -0.0246187482383, -0.0912786888428, -0.000633134537448, -0.0189970378941, -0.0952055002588, -0.0809360210266, -0.219821334991, -0.0566541922711, 0.067796890761, -0.162962250809, 0.0168131627199, 0.0183252366618, -0.0285760164376, -0.0504713531355, 0.0381004109053, 0.00863429737301, 0.00366180650871, 0.00459516283253, -0.0272788043187, 0.0898368792389, -0.0132671930961, -0.209192926961, 0.0160159894093, 0.0297479038677, -0.00330867229875, 0.010437140269, -0.169459908005, 0.0701695634765, 0.110023562925, -0.00985420429281, -0.158573464665, 0.0767465726359, 0.0224939169914, 0.105451103933, -0.250511291561, 0.0346407073259, 0.0678632409289, 0.16288349021, 0.0781814047621, -0.126135540366, 0.0667692910313, 0.0285982720402, -0.174575934971, 0.124110711838, 0.222089743562, 0.131728367124, -0.0285205545734, 0.0463780353032, 0.251258737452, 0.0043742855331, -0.0132771648941, 0.0100943519643, 0.0177668229029, -0.0974444527689, -0.0445055186502, 0.0123680812412, 0.00288340389432, 0.00525636641162, -0.0190710820602, 0.00367656997961, -0.00052279616648, -0.0250245333397, -0.0257757380101, 0.0121939629101, -0.0603602459033, 0.0187841787587, 0.0686428562943, -0.217884591885, -0.012786940631, -0.0497442921872, -0.0777612629117, -0.234785821576, 0.0108691347927, -0.132540286146, 0.00214198526959, 0.215319546711, 0.0609327871438, 0.0602229366007, -0.0930156837167, -0.0593345168696, 0.0553759053743, 0.0082008201692, 0.0909855713389, 0.181517499887, -0.050076759841, 0.0869688388465, -0.354813698559, 0.0088641039911, 0.0309030146264, -0.021023597023, -0.00742374592133, 0.0933674204514, -0.00764882945756, -0.126988125162},
	{0.0847822949666, -0.12259826366, 0.0798628043125, -0.0584642480602, 0.15130319314, 0.0509463495705, -0.0183796598687, -0.103089445175, -0.0119315499971, -0.184648768362, 0.170375951895, -0.250474370471, 0.0560461345252, 0.213584814437, 0.041546997627, -0.04711377831, -0.0197300051914, -0.0185428613111, 0.0427673966439, -0.16357041634, 0.159270782386, 0.0102081541891, -0.00178993727959, 0.0281651016457, -0.123908238172, 0.168540739815, 0.107374467506, -0.166443839671, 0.0876413140586, 0.225629849446, -0.129541765152, 0.17195891554, 0.279068586137, 0.0500524497171, 0.375312995396, -0.0126243757194, -0.0177709780741, -0.160046982, 0.0877921412865, 0.118454416862, -0.112158580564, -0.203770865464, -0.0960380119964, -0.0947144118259, 0.171917365887, 0.143535091886, -0.0850878891735, 0.0659927478221, -0.156520354547, 0.136925956353, 0.106197332564, 0.232450462925, -0.0110859264235, -0.0663897084233, 0.0440965214305, -0.0247160827746, -0.0153127253114, 0.0106787332509, 0.0264119582588, 0.0356018208457, -0.0283550682097, -0.0195447932321, 0.02865690642, 0.0540271328864, -0.0657553449295, -0.00580317372175, 0.0130572678628, 0.0278846587038, 0.0109334207946, -0.116519058361, 0.138598825387, 0.105411821987, -0.0827269771513, 0.0395769163992, -0.148637902877, 0.0173238473846, -0.0292411684604, -0.177598602615, 0.102074700561, 0.0667981566458, 0.00189540149244, -0.118825621443, -0.136977399944, -0.0634868854802, -0.203157156074, -0.0468920714111, -0.0995010253439, 0.00740018630762, 0.0415879950556, -0.0397773065233, -0.00624109587102, -0.114215213806, 0.063187926699, -0.016140238445, -0.0463486634705, 0.0130417467478, -0.0409034883855, 0.0997360800029, 0.0136859466857, -0.0405329604951},
	{0.0590754670264, -0.109403018745, 0.175809335935, -0.00478502523957, 0.0899290089253, -0.0401845359191, -0.0623308684864, 0.00672062742939, -0.0046624985174, -0.0260489460757, 0.133131007975, -0.125444639444, -0.0158061726875, 0.0110078555756, 0.119110015429, -0.0291360339441, -0.0243719201054, -0.0152207829469, 0.111549487317, -0.0820597364468, 0.0766304825237, 0.00122122069377, 0.00635469416907, -0.0840052440439, 0.0428375909458, 0.0184351096646, -0.0278220704191, 0.0800601791704, 0.106980638964, 0.130642785839, -0.245430678433, 0.0520356981372, 0.0764992910599, -0.0376998326386, 0.379166389116, -0.00765023473798, -0.173468333529, 0.0688611753374, 0.0201795792761, -0.0696485845419, -0.218940786517, 0.0665443337101, -0.139609414719, -0.0473087401814, 0.0104461623494, -0.0111128528954, -0.0371684832282, 0.0668864582763, -0.128130203175, 0.1024739539, 0.125271499003, 0.0916125712368, 0.000342125032717, -0.132170113601, -0.052099251399, -0.0494154901968, -0.000515936553785, -0.00488344261528, 0.0589350167325, 0.198317345344, 0.0418890692898, -0.000693787450139, 0.025032336858, -0.0477245970356, -0.000604405975995, -0.0208407384805, 0.00532937108526, 0.117771055449, -0.132722680383, -0.0720455555751, 0.0886367763817, 0.0402545055067, -0.172504324217, -0.0228674378374, -0.114702739755, 0.0376425797448, 0.00219791856349, -0.210983085596, 0.13869221152, 0.145081564928, 0.00951102291902, -0.0515171311696, -0.29680532786, -0.194079282286, 0.0150429254718, 0.0599244959078, -0.156286261775, -0.00876122214816, -0.0079544631698, 0.124187832212, -0.171915764545, -0.247496505331, -0.054713789414, -0.0800583394585, 0.0580282688938, 0.00299044182835, -0.0460514549896, 0.0311231324704, 0.00306396897178, -0.117169675531},
	{-0.00621340708238, -0.0889894398093, 0.175176180164, 0.187027309923, 0.205253186368, 0.0670154154335, -0.0803223514729, 0.0555402127361, -0.00625092901681, -0.128578943296, 0.0817572276068, -0.115239560312, 0.0671278443211, 0.0540731163512, -0.00125612460107, 0.0680989968454, -0.149715881557, -0.0102590313411, 0.0226704718764, 0.0400536283577, 0.220274640483, 0.00112882170077, 0.00300187860403, -0.0891112972939, 0.0492656106079, 0.00110480138483, 0.0378659642705, -0.0466585001917, -0.0961898170031, 0.19599359643, -0.205021809431, 0.091855611698, -0.00602011761626, -0.0197063487886, 0.11463967791, 0.019927607891, -0.236700067784, 0.119243321715, 0.000165535586623, 0.0697226775397, -0.169603211996, 0.0428450213542, -0.131287488841, 0.0559338719732, 0.116138299066, -0.0593168057112, -0.0174505491388, 0.0390265558482, -0.160066481732, -0.0386145631235, 0.120089095067, -0.0242035404548, 0.0128743191302, -0.0144836505084, -0.170912559967, -0.152312943234, 0.0190095944391, -0.00107204027407, 0.0544980785862, 0.132745645702, 0.0101065259183, -0.0072877749622, 0.0485455596686, -0.0312507008705, -0.0534554643246, -0.0026599346424, 0.00571409585947, 0.126553337091, -0.113859046552, 0.0295171484597, 0.145451136223, 0.0800513401283, -0.103217438125, -0.0497866882036, -0.139018203224, -0.0406763398186, -0.0636243431878, -0.228216450277, 0.113121095747, -0.0328573169451, -0.0029610826735, -0.173170545669, -0.287134388642, -0.154911645319, -0.0534680473601, 0.168947334755, 0.0989317161706, -0.00435266786955, -0.0262947724868, 0.00455714718783, -0.154175952374, -0.117816011771, -0.150483984327, -0.0846360380411, 0.086731352566, 0.00195640170877, -0.0658219559759, 0.066986944588, 0.00798231508777, -0.162294380816},
	{0.0173649708253, -0.125495764119, -0.0232789355568, 0.0713538063989, 0.0144600733563, 0.0950844407455, -0.0327494909206, -0.0749312997088, -0.00201588692608, -0.16104042361, 0.0517444123645, 0.000581973965112, 0.133245518273, -0.0651872212747, -0.0335076685314, -0.00704749428798, -0.154820778272, 0.00244529279252, 0.0124592516685, 0.0765435268063, 0.161739996884, -0.00170064017861, -0.00898392922775, -0.104918564012, -0.00117137956656, 0.0494770023607, -0.0288776128434, -0.0601527411173, -0.107368764851, 0.136738218925, 0.0238649315447, 0.167749887375, -0.186661895713, 0.0551760411844, -0.0428071738715, -0.0108125903135, -0.120265201137, 0.117410390945, 0.12333825193, -0.0936939767401, -0.0876713110573, 0.0220597309722, 0.0162169718712, -0.0521487899826, 0.0130007870735, 0.0813906215355, -0.0470083655668, 0.0263897470467, -0.0467851744237, -0.118763417019, 0.206965633938, 0.00852118777928, -0.0125752995881, 0.159925916544, 0.0317418516743, -0.141457590294, -0.00757240618159, -0.00287888080705, 0.0315139983668, 0.12177644298, 0.0921758570724, -0.00590287654952, 0.0030465396972, -0.00550567644025, -0.0431655348286, -0.0191224508989, -0.00429690129563, 0.00169304997605, 0.0515573989869, -0.0399755135261, 0.000660587394111, 0.0747744986999, 0.113834424917, -0.0329529013042, -0.0116226687672, -0.00163675973426, -0.0976534161163, -0.147502328396, 0.148843539689, -0.163222571145, -0.00761395132009, -0.139581676634, -0.094467866196, -0.000653607652044, -0.0282847900218, 0.121169439594, -0.0433719905574, -0.0109379342092, 0.0391216692238, 0.0127118192149, -0.178037379681, -0.0647957492282, -0.0448280747239, -0.160630748602, -0.00118157858126, -0.0125695634698, -0.0768529624567, 0.0737628100986, 0.00958688352219, -0.0506084163014},
	{0.0248121291118, 0.0108139131362, -0.0359410598343, 0.0411716275099, -0.156499855764, 0.0744805267934, -0.0592889623969, -0.14504018656, 0.00301604625154, -0.0379138889846, -0.120208199701, 0.0555931952781, 0.0635422480676, -0.0789964237894, 0.0729102488609, 0.00231753469706, -0.0913956118116, -0.018297690971, 0.0269721059814, 0.0776991841748, -0.00576871920675, -0.0145367640314, -0.0149337014243, 0.0323166241573, -0.0458833872807, 0.0828294014605, -0.0923899746085, 0.00798338061499, -0.101306238175, -0.0286127261437, 0.0626015582831, -0.0414421678429, -0.36872626913, 0.0674134516504, -0.0247663336334, -0.00226190438191, 0.123589340317, 0.0180945078273, 0.119777124852, -0.101260232245, -0.0442959433541, 0.0541755643948, 0.099704818099, 0.0386474762393, -0.0562874510506, -0.162063292379, -0.148181083723, -0.0230146490484, 0.011555841958, -0.0884759226651, 0.141207055683, -0.0567161833203, -0.0261054187502, 0.030643650955, 0.0260364282557, -0.0441633474614, -0.00670418644929, -0.00813654307786, 0.0610616704671, 0.112913782454, -0.0999471343755, 0.00703717706496, 0.00604228549898, 0.0250066415178, 0.0368096696904, -0.0152292233355, -0.0239830649358, -0.0711084693634, 0.16832761476, 0.0400457916726, -0.061951256358, 0.0672622205591, 0.0946466755594, -0.0226758491252, -0.0489441260423, 0.0332046403509, -0.0316142962714, -0.185104362776, -0.0151297229647, -0.00380710866873, 0.0126471961157, -0.146282383294, 0.171291290853, -0.0294592723875, -0.0147781646486, 0.041505983029, -0.049980237661, -0.0109596346904, 0.166877368754, 0.0720728279047, 0.0403105589722, -0.0716367375248, 0.0999261344432, -0.0458261289996, -0.055333252313, -0.0174018934237, -0.052279271394, -0.0378626078136, 0.0393602322611, 0.0138333578007},
	{-0.0923304874339, 0.0468836399087, -0.0143124638536, 0.130630403428, -0.0899399340838, 0.118407175596, -0.0290707432946, 0.0435602954217, 0.00357176055041, -0.0916243043702, 0.0546262166047, 0.00811957428098, 0.0137476293789, -0.0111728039829, 0.034099688649, 0.0591903200631, -0.0566778722793, -0.0332216822851, 0.0628818201392, 0.0735435618335, -0.0585157161333, -0.0195781454344, -0.00246432103256, 0.0482162917444, -0.130735652739, 0.0410451552213, 0.0378118150745, 0.0644963521937, -0.0461932821719, -0.0379168988999, 0.0788252231201, -0.151664592794, -0.0531816192909, 0.0491916029078, 0.0409756825252, -7.7393771348e-05, 0.110635189459, -0.0515125455848, 0.0355413964622, -0.00244375247116, 0.0070674793095, -0.047231992708, 0.0105185413482, -0.0211840403127, -0.0347489030235, -0.0537721890077, -0.085095500186, -0.0339818045625, -0.0406222416257, 0.0531515475485, 0.114204982867, -0.036071100502, -0.00348700171585, 0.0251990453509, -0.0208144716518, -0.159214934121, -0.00793051774457, -0.00941557688549, 0.0756439011251, 0.0419972573035, -0.340686610376, -0.0145508209161, -0.0305872254692, 0.0318911218486, 0.0252031275039, -0.0218292164813, -0.0354632241779, -0.0407361755279, 0.0550583896399, 0.0430999681511, 0.0258078367949, 0.0233931442716, 0.0387966017444, 0.0256384563845, -0.0628699150432, 0.0610118389173, -0.00669759542061, -0.0698052948865, -0.0551564571301, 0.0382640941566, -0.00951652031789, -0.0962308526166, 0.154331082534, 0.06642392787, -0.059075443624, 0.0102167849721, -0.0282275869795, -0.0186960181242, -0.0189079156601, 0.0799962808548, 0.0878167487793, -0.054871647607, 0.010699675976, -0.0226298161627, -0.0306990232862, 0.00441779029402, -0.0505277283326, -0.00434643937676, -0.0239811330688, -0.0147267539402},
	{-0.0178853800775, 0.0832976840491, -0.0149862207985, 0.106850297102, -0.035234042081, 0.102305879704, 0.0311621755905, 0.115588707149, 0.0106444039711, 0.0258420421104, 0.0339891098619, 0.0498914281101, -0.0769064556483, -0.0795002504819, -0.135282753888, -0.0141813694559, -0.146947043104, -0.0259728758633, 0.0317376953977, 0.0792207749842, -0.111301578537, -0.020159586959, 3.08813003891e-05, 0.0792068231796, 0.0145512761545, -0.0716065642428, 0.00355467581206, 0.00987943028872, -0.0272679038523, -0.00943906583375, 0.0481937751452, -0.0772871540448, 0.0893709407061, 0.0493981904246, 0.024391139906, -0.0101435692775, 0.050085800886, -0.0137098940179, 0.016730235407, -0.0429413250247, 0.0125170968415, -0.136348770362, 0.00305489338337, -0.0921022600223, -0.0606524357809, -0.110732273299, 0.0252053984601, -0.0493578981979, -0.0627980909986, 0.00074712726877, 0.14225537622, -0.0200244493795, -0.0152567535648, 0.0247915854295, -0.0243977492989, -0.153290319649, 0.0123245410356, 0.000631059963749, 0.0681552953253, -0.0628683603499, -0.132314298478, -0.00701254339942, -0.052677552778, -0.0344602162926, -0.0157252440652, 0.00947165549778, -0.0168357906759, 0.00965355106395, 0.0358893582722, -0.0219661314427, 0.0135393653311, -0.0623066256214, 0.0186232390168, -0.0318899781222, 0.025314721408, 0.0952510006194, 0.000109388467496, 0.000515648120507, -0.0793202016084, 0.0289755963831, 0.00524478983237, -0.0679826847706, 0.0131336068846, 0.139533187935, 0.00442722673558, 0.0999904268805, -0.0490937026898, -0.0211898700919, -0.0902090657785, 0.0302835059039, -0.0066115181834, 0.116064699283, -0.0905447704835, 0.0542205996602, 0.0504188968895, -0.00348082850869, -0.0577413186702, 0.0233912822201, -0.0263844392684, 0.0532810683875},
	{0.0610495447554, 0.0767710058992, 0.0143287542601, 0.108340469812, 0.0172491964548, 0.0106727947639, 0.0160370246584, 0.0839805125817, -0.0137030807176, 0.127224007561, -0.0961019670424, 0.0934366374453, -0.122845650023, -0.0132128537721, -0.164360420801, -0.120498135267, -0.115769088776, -0.0378406417854, 0.0217799685418, -0.049032947467, -0.0982286050942, -0.00634303141609, -0.00541396246558, 0.013690558478, 0.00755998848719, -0.0261236978537, -0.0610846390568, -0.00567976819637, -0.0472087527985, -0.0401998360487, 0.0137148050056, -0.0570382703573, 0.104690452185, 0.017335320892, -0.0780236383311, -0.00699765215694, 0.0746302836925, 0.00797687477757, 0.0402615947554, 0.00102608411932, -0.00249156897749, -0.174261674273, 0.0179257873795, -0.0153953303156, -0.109068041255, -0.0958273370875, 0.0567378720378, -0.0694765584279, 0.000290679941087, -0.126393075535, 0.232729233842, -0.0359714466359, 0.00397028522346, 0.110883547332, -0.0188449429976, -0.00707594581989, -0.00442494775123, -0.0199539179959, 0.103689913664, -0.136993074094, 0.0770138350361, -0.0144491029159, -0.0557489002846, -0.00445414562659, 0.0505616760335, 0.00121212361653, 0.0027728422598, 0.0650940905787, 0.051452862299, -0.060244387634, -0.0154221130314, -0.111087964136, -0.0249631127124, -0.0938456700918, 0.158571897421, 0.0259282712316, -0.0297741220809, -0.205034292453, -0.0897826839367, -0.0764135835648, -0.0156262830181, 0.0327074774935, -0.167046466461, 0.152094328067, 0.0365249484836, 0.230903003364, -0.0228087548984, -0.00827960499975, -0.112919757689, 0.0377672281999, 0.0675176154801, 0.151159400685, -0.0649107248184, 0.0218727998687, 0.00351037540261, -0.00484146389994, -0.051707622219, 0.00333504574518, -0.0414381191932, 0.110946822457},
	{0.0776423655848, 0.0213975843497, -0.0147559476222, 0.140862643867, -0.0209608471114, -0.0268337375392, -0.0171860838223, 0.0627767102621, 0.0058286228894, 0.0722711707268, -0.171342042772, 0.0135160896522, -0.151426523278, -0.0358354755676, 0.00275561278595, -0.0697950359121, -0.0331781277922, -0.0360705102856, 0.0431308918467, -0.261027202296, -0.112663120111, 0.00854177522318, 0.00858073112675, -0.000688250066978, 0.00460159479871, 0.0574357437986, -0.0382140878917, 0.0690576942714, 0.00997326430121, -0.030693633056, 0.0671362232121, -0.0975555856029, 0.00323869824492, -0.0177171514155, -0.104517959941, -0.0426397873856, 0.136987855316, -0.000782803379723, 0.0588648212997, 0.00633117924133, -0.062250155285, -0.0953722627007, -0.018813132636, 0.0435721637128, -0.0465888820269, -0.0670225513993, 0.0416694407385, -0.0245987641023, -0.0286639163475, -0.088257241925, 0.196237987202, 0.0151708354945, -0.00210498828765, 0.154577448649, -0.0171615132908, 0.0310429459465, -0.00469731949056, -0.0164038436952, 0.121146750103, -0.113615828246, 0.167881749795, -0.00709650234745, -0.0331335608872, -0.0475267684141, 0.0759428550477, -0.00132173093376, -0.00200775242495, 0.0436742483848, -0.0298224149349, -0.0188919791512, -0.0988785534547, -0.117074639283, -0.0366664761601, -0.0543614265409, 0.176744178405, 0.0243521876144, -0.014053085921, -0.264277365961, -0.0634712395258, -0.213659330299, -0.0185005283135, 0.149610060538, -0.0736918648131, 0.13080137186, 0.0993327147253, 0.215384106397, 0.017515144271, -0.00954303637061, -0.274918162955, -0.0329469854241, 0.175291148482, 0.155518078147, -0.0679761980753, 0.0155852706289, -0.0858165695552, -0.00335471656909, -0.0538950098838, -0.037265002989, -0.0149235418463, 0.0702628498483},
	{-0.0160027773225, -0.0238491375134, 0.0150900705719, 0.0648086545648, -0.0757708969294, -0.0607221574002, -0.0776613401953, 0.113181310033, -0.00148792955555, -0.0249408212347, -0.0484333083751, 0.0347580083675, -0.267539615233, -0.0299536163265, 0.0425105321982, 0.0222343243523, -0.0557037926689, -0.0405889987558, -0.103542246634, -0.23910362132, -0.0802956961678, -0.000583861033221, -0.000191793065592, 0.0585723389727, 0.0462345465371, 0.0759093656567, -0.0117978102453, 0.142482890057, 0.10188695566, -0.165031258322, -0.0517527500593, -0.14520259753, 0.0673181457166, -0.0426228727041, -0.14643774444, -0.0381467905665, 0.172002388848, -0.0392834887402, 0.0614418403282, 0.0174238086143, -0.0406589897257, 0.0224950325697, 0.198508338363, 0.144010259025, 0.0645256574632, -0.137247785664, 0.0535731577653, -0.0115862012673, -0.230153306833, -0.114340476384, 0.0541848983857, -0.112240801871, -0.0317639274483, -0.0748318304477, -0.0688337272119, -0.0858913881936, 0.0112229213283, 0.0095781780607, 0.133031076694, 0.00670449574793, 0.0875778220955, -0.0118429693848, -0.0353679386504, -0.115416956076, 0.0201794297129, 0.000880019990154, -0.0101286197787, -0.0480046258992, 0.0102875385973, 0.0500252481938, -0.0663706266194, -0.0383759051756, 0.0645881518427, -0.0470029189045, 0.0340876918299, 0.0878112886672, 0.0407739688042, -0.183714187257, 0.0336216501254, -0.173379100393, -0.0281856706164, 0.105399802508, 0.0775956229571, 0.0670833654497, 0.150031687197, -0.0608895666059, 0.00863733426637, -0.00603842557244, -0.333078998008, -0.0547738767939, 0.0612030136859, 0.141885069123, -0.235532006226, 0.105744765535, -0.0261321317032, -0.0146567056719, -0.0479548234565, -0.127659208924, -0.029623415278, 0.100779940702},
	{-0.0713309780293, -0.0278581904761, 0.0337699308461, -0.144783456362, -0.129809257607, -0.0694560214375, -0.05837285444, 0.0925336689194, 0.00368594139597, -0.0181020017934, 0.00846892297511, 0.0142679899167, -0.268743416924, -0.170402536852, -0.0060490575723, -0.0146413457348, 0.00783117649249, 0.016774611754, -0.0653191249249, -0.212060571111, -0.0175293206196, 0.014356671359, -0.00615415260797, 0.0243443069461, 0.0557654605609, 0.159984762895, -0.0348882509814, -0.0715463542263, -0.00997821808902, -0.0924485762042, -0.03623375263, -0.108811642969, 0.0968596477345, -0.0152111676342, -0.0924436146539, -0.0294667671588, 0.187969877066, -0.0682292017947, 0.0522296491315, -0.067836942294, -0.180995494694, 0.00439612317546, 0.163750031014, 0.11900027581, 0.0396983980102, 0.0011269456442, -0.00785823474958, -0.0246732811739, -0.177343581968, 0.0974073012974, 0.073980587912, -0.0476354506554, 0.000806397686987, -0.00249704870528, 0.211229773992, -0.187229361768, -0.0123206585812, -0.0162553014408, 0.0803466701974, 0.00347097258843, 0.141102463061, -0.0128142037661, -0.0415138698418, -0.0744360654572, -0.0565886720408, -0.0112169964409, -0.0233720873752, 0.0427895408303, -0.150150901679, 0.0401380681932, -0.174986414341, -0.0739989950164, 0.0570240022611, 0.0122839959162, -0.00205344936335, 0.0328247586667, 0.0680630944068, -0.0826634247494, 0.0565001209021, -0.220952102388, -0.0173265977825, 0.183786855099, 0.117049550363, 0.0765371403765, 0.113390004104, -0.114077723898, -0.0229633406678, -0.0188660643942, -0.255049749155, 0.0454258253789, -0.00158488778587, 0.117994137291, -0.343544858677, -0.0129337478109, 0.104649193101, -0.0162425335064, -0.0282329823329, -0.0571230304587, -0.0255048376062, 0.0538350738688},
	{-0.129757981042, 0.0912409506409, 0.0797307167374, -0.0185807480854, -0.222811858351, -0.111282775351, -0.0650922222844, -0.134196221402, -0.00131998953914, -0.0246266785343, -0.00698290328174, 0.0941916892674, -0.106152360019, -0.221807894121, 0.0102298239448, -0.146932070698, -0.0825224571312, 0.00621565915983, -0.208134212953, -0.377224848734, 0.18964474294, 4.08316799759e-05, 0.0144542041026, -0.0998017847654, -0.013218412587, 0.0822072316241, 0.0428208179218, -0.194200561909, -0.0834324133875, 0.0693702586517, 0.0628122078036, -0.00772000217309, -0.0823964438397, 0.0470087187691, -0.00213129586954, -0.0211634255738, 0.0574012219978, 0.0884427815653, 0.0805698817839, 0.046174421191, -0.319326828104, 0.0987564534366, 0.0674098649508, 0.0699197223607, 0.139313916492, 0.133163759912, -0.0769841416524, -0.00559391457859, -0.109728451922, 0.115935553338, 0.0403293752134, 0.0769553954964, -0.0097095063254, 0.123978697165, 0.375383687185, -0.225443176617, -0.00910623167978, 0.00324939149868, 0.139756300801, 0.00145768553928, -0.00822527345947, -0.0057923147845, -0.0134526623028, -0.0362414681509, 0.0268108325569, -0.0200718537041, 0.0105684950598, 0.149130520304, -0.299406999755, -0.136998243454, -0.179757706123, 0.0479819591038, -0.0640025927425, -0.0865474060636, 0.0208427077093, -0.221724225859, 0.117175087854, -0.181863246145, -0.0375304377867, -0.0853806586332, -0.0180915119768, 0.23776501746, 0.0506095323794, 0.19784006482, 0.106705351639, -0.0333308117338, -0.0278319336811, 0.010521729623, -0.233236791544, -0.0335610188931, 0.0123911920468, -0.0495766007551, -0.269155972736, -0.0181118629681, 0.354253193843, -0.00338558549514, -0.0167988725092, 0.226292160617, -0.020366113253, 0.033238743685},
	{-0.00451483053788, 0.0516564226461, 0.273610148113, -0.0447251803348, 0.0349658859498, -0.0184236239846, -0.0303200298097, -0.0457661409004, -0.0102836205206, 0.0100914726488, 0.169596961163, -0.0335666479624, 0.205358581795, 0.0231260254595, 0.157128589677, -0.0896292634761, -0.00941046607222, -0.0170122012654, -0.0391260111912, -0.0909982364093, 0.251269625634, 0.00402596314089, 0.00349927694062, -0.0864165768828, -0.00554908470458, 0.0648515387404, -0.0365624780819, -0.0275917661013, 0.247702638483, 0.137612452252, -0.157698551773, 0.108950872957, 0.119532887764, -0.153642299696, 0.289201927663, 0.00108405760888, -0.074412998752, 0.0880886253984, -0.162142311977, 0.00254954247635, -0.38573854279, -0.0217956574666, -0.0948306941234, -0.0897667381095, 0.048174158772, 0.0978514043197, -0.0740550745503, 0.0354248380697, 0.0242909538968, 0.0468263608988, -0.0587516078485, 0.234408400437, 0.0179713492995, 0.0512428293597, 0.00787160676635, -0.153938487216, -4.17195076938e-05, 0.0137722232295, -0.0339192175752, 0.211199704826, 0.155826741188, 0.00665476605819, 0.00604130074143, -0.0397357114083, -0.0676546495903, -0.0152982225532, -0.0129104183011, -0.0150815315583, -0.298073366309, -0.0662519687592, -0.0311913708458, 0.169590725096, -0.0455372457378, 0.0447973491842, -0.160942941675, 0.144931862695, -0.0823430422353, -0.105228810941, 0.226665906933, -0.00595970971756, -0.00472689019506, -0.105407009049, -0.169192924376, -0.0715560267307, -0.0218366668773, 0.0339096118396, -0.153629052614, -0.00735547544925, -0.00928472475054, -0.000768807601574, -0.140760471674, -0.148024588958, -0.0314790184667, -0.0981137176617, 0.0842524979258, 0.00453879490969, -0.0751173624967, 0.166648025888, 0.0329756249319, 0.0530824089542},
	{0.0837627373092, -0.0868961457429, 0.218999338818, -0.00773385481799, 0.09864923381, 0.0316046157316, -0.069153071158, -0.0345671704679, -0.00488645694794, -0.124028671819, 0.0484452536906, -0.0562353627213, 0.00165111123432, -0.103677084388, 0.0350570205619, -0.144141623318, -0.047255973917, -0.0185163161473, 0.0154706865424, 0.0161504976084, 0.132963356482, 0.00655446976897, -0.0106866261499, -0.129289853581, 0.0173679494388, -0.0637322612603, -0.0338391526084, 0.0152788326068, 0.0283984937307, 0.072383172458, -0.0722896111308, 0.0568667284714, 0.0189846033728, 0.00924083279623, 0.131922786427, -0.00964499972368, -0.256702380891, 0.0125475889595, 0.0937090559967, 0.0204911687132, -0.263483137152, 0.00893509518089, -0.106067241419, 0.105952850221, 0.034009736625, -0.0235543451659, 0.00553497349045, 0.0276879454206, -0.0350412756327, -0.143468180921, 0.041312342389, 0.0532920828533, -0.0154930339533, -0.266745266067, -0.114187591615, -0.208481189781, 0.00553185187903, 0.0111561102685, 0.0398701584275, 0.12591376967, 0.00633319876785, -0.00270813520993, -0.0121616299163, 0.048476871746, 0.0220836164403, 0.00126084216629, 0.00650330806638, 0.0518628265255, -0.31098391495, -0.0347439332929, 0.0459521557689, 0.0702283001149, -0.0991957426815, 0.0265460671947, -0.220157367802, -0.00868387087499, -0.0735867960397, -0.116896241657, 0.0544610748411, 0.0453236172666, -0.000454042701079, -0.0617608580419, -0.3443652119, -0.110239785762, 0.028095014179, 0.106233958581, 0.0911903527857, 0.0112006123472, 0.0691339904921, 0.130550173719, -0.153329075792, -0.229659966552, -0.19403547712, -0.112549162596, 0.0194256684127, -0.00549742355556, -0.0811211121537, 0.0408400630249, 0.0340112928163, -0.109661630133},
	{0.0086285918955, -0.102906356299, 0.106604144319, 0.0815525838056, 0.0863587363074, 0.100004644653, -0.032050085368, -0.0383808413666, -0.0159989615071, -0.142455683911, -0.013484732705, 0.0320092700802, 0.135943469448, -0.103459829941, -0.0278883726127, -0.0174801841616, -0.1266709932, 0.00156539629004, -0.0124056506408, 0.10521637306, 0.217009418926, -0.0115627292743, 0.010060136712, -0.126536349468, 0.013845882565, 0.0307326169826, 0.0941940583591, 0.0825852127657, 0.00949853619538, 0.17946757145, 0.100491509859, 0.174979274269, -0.0935752311781, 0.0333935717743, -0.0754305684269, -0.00685097461574, -0.0905298709239, 0.0666779119632, 0.0886727226395, -0.0760347280729, -0.176133746945, -0.0347173038329, 0.0516814628292, -0.0197082043116, -0.01190440662, 0.207387291869, -0.0309147993275, 0.00430407790965, -0.118549970418, -0.225761512592, 0.109536655719, -0.0052893544796, -0.00999695999831, -0.00787024810754, -0.0389059468028, -0.225319101837, -0.0105752035832, -0.00270296047418, 0.08495604215, 0.0862199137495, -0.0498680109231, -0.00610754035501, -0.0100192347134, -0.0526274247301, -0.0517737213056, 0.000569736388269, 0.00421897983149, 0.00853872461481, -0.0868046597213, -0.0258842552236, 0.00108603028601, 0.0550352050314, 0.0738310023823, 0.123147449754, -0.140228067078, 0.00660401886286, -0.0732576386065, -0.0641103026096, 0.160845223597, -0.118450377856, -0.0103345741148, -0.14730661494, -0.240395860452, -0.0145892521027, 0.0357772435552, 0.105811223934, 0.0953166626305, 0.000512200600428, 0.0132984882484, -0.00142299622207, -0.205552928139, -0.0875565114679, -0.118623915614, -0.271150163206, -0.016286882554, 0.00481408129711, -0.0541243075028, 0.0914585057357, 0.0435254355071, 0.0123504673186},
	{0.0551071942333, -0.0387226410233, -0.125254701369, 0.002346680427, -0.0226556428332, 0.0435974569391, -0.0522973018877, -0.161532464531, 0.00830878383856, -0.0142185330624, -0.14983609704, 0.0336679332256, 0.113003853494, -0.0840497644468, 0.00798758161473, 0.0911178769381, -0.0497860615087, -0.00450645654609, 0.0768633890338, 0.0769706750164, 0.0196379693725, 0.00374155313688, -0.00659397317227, -0.0913849538888, -0.153595438779, 0.036758464292, -0.025412801258, 0.0805085106497, -0.0756530377544, 0.0682918535635, 0.0392779701318, 0.0537205244406, -0.447854214018, 0.0876094616042, -0.0486132410451, 0.00848109144034, 0.0042821350338, 0.0623058939976, 0.107392895941, -0.0537613698513, -0.09966747082, 0.0391533449973, 0.0473272113161, -0.054835197713, -0.0477862992018, 0.0182157714083, -0.0474799037789, -0.0701098560417, -0.0167313673127, -0.288612872228, 0.159363060891, -0.0988188480555, 0.0170077818894, -0.021848065148, -0.0170020282837, -0.0647211948722, -0.00686007798148, -0.00902008529434, 0.0413828394851, 0.0591275328032, 0.0136808719606, -0.00320205462682, -0.0388440967551, 0.0290899173504, 0.0223306267307, -0.0176597512742, -0.00799930593424, -0.0754491609786, 0.0342982848302, 0.132787852455, -0.0666745848941, 0.0447453248057, 0.0604145652136, 0.131476274504, -0.0575408351582, 0.0524918980185, -0.0215594300064, -0.133295698331, 0.139625101266, 0.0450091522613, 0.0103605972411, -0.24474038268, -0.0697346692602, -0.0860025666262, -0.00917131592884, 0.0740666632223, -0.0567460517957, -0.000993881878791, 0.153034133525, 0.00382900670587, -0.00672241769524, 0.0178435539235, 0.193009297622, -0.105636611414, -0.035923866343, -0.00448693431179, -0.0468704546998, 0.0336443398247, 0.0319696273305, 0.107467452191},
	{-0.0620035677755, 0.101500094278, -0.0182328596435, -0.0893657434039, -0.0734193111246, 0.0538841281868, -0.0397619330008, -0.107207290486, -0.0121072665301, -0.00844887168031, -0.0259105776817, 0.106649917846, 0.0999655851957, -0.0302534365126, 0.150258469958, 0.134901619055, -0.135524672229, -0.0553081417343, -0.016176141074, 0.14020237189, 0.00184652686473, 0.00141965607156, -0.0149677001743, 0.0070513287545, -0.0630850359053, 0.00930852593678, -0.0186193291465, 0.0281235212457, -0.0487690929672, 0.0409029156619, 0.137119206649, 0.0374268380109, -0.322654236469, 0.130281294278, -0.0306678321505, -0.00705419057655, 0.0356793838526, -0.00539354875001, 0.120065282592, 0.0130308269202, 0.0644252057551, 0.0817390654187, 0.0207931335175, -0.00665966411908, -0.0609215290403, -0.113386624923, 0.0151623158571, -0.0652709968851, 0.0780483001208, -0.0572810049971, 0.0877655733016, -0.0937048455669, -0.00543897224052, -0.043915267921, -0.00404433589204, 0.0226439554904, -0.0184214210009, 0.0077880952465, -0.0402763665076, 0.0524995860378, -0.101089072279, -0.023944296854, -0.0526291017618, 0.0801476321174, 0.00291357060108, -0.00663426016171, 0.0141605224956, -0.0287997339385, -0.0243152812453, 0.0749643940937, -0.0506952066805, 0.0666821249326, 0.0454442950155, -0.0382311707313, -0.0045722211865, -0.000220873485273, -0.0641845451965, -0.0515044934647, 0.0549859653329, 0.109015064803, 0.00541111102143, -0.161273344696, 0.114839888798, -0.034016960941, -0.0366589992848, -0.00255971941345, 0.00388029626664, -0.00231118059701, -0.00154340995886, 0.0797395295346, 0.0363319686699, -0.0199058657116, 0.177585406253, -0.135027328252, -0.0324927489511, -0.0170886191077, -0.0411058734908, 0.0217661296727, 0.0257118338957, 0.0987420492521},
	{-0.0906602308356, 0.0681643011242, 0.112433666082, -0.0218925727849, 0.0131115282706, -0.0150721602388, -0.00340498523612, 0.0366103875823, -0.00168149974613, -0.0337604899543, 0.0574667417937, 0.0336209705117, -0.0998762637446, 0.0385297752712, 0.0115301069423, 0.108379453885, -0.109954133773, -0.0509459314912, 0.0609770786838, 0.18677056438, -0.0232331142633, -0.0146682237775, -0.0105728766715, 0.0613804110246, -0.0129087539508, -0.147715840711, -0.0147735556802, 0.125167103642, -0.00328730122403, -0.0335057102392, -0.0304264053179, -0.070302861965, 0.0454292212796, 0.0765528626288, 0.00160650116795, -0.00562543918239, 0.129778082867, -0.175260486551, 0.040101783292, 0.122607724184, 0.128158396764, 0.00616147760413, 0.115182918817, 0.00396101764305, -0.0926360932757, -0.11240337943, 0.108799772593, -0.0362551562189, 0.0208919933013, -0.0605341524548, 0.0803934474845, -0.0563966085733, 0.00123227266472, 0.0276831424491, -0.0917864009276, 0.0223554906249, 0.00140912423437, 0.00542462858701, 0.0658989400047, -0.0423811179558, -0.285819067778, -0.0265421268699, -0.0580323396529, -0.039617869067, -0.0763000662612, -0.0146666340109, -0.0044209240237, 0.0111374497852, -0.12050716625, 0.0264798956241, 0.0340929278708, 0.0361824855544, 0.0570708054002, -0.0483322603778, 0.0478052824362, 0.112945710869, -0.0361922945674, -0.0264878316315, 0.00373092956047, 0.044898283074, -0.00116504130957, -0.115990879848, 0.135384072749, -0.000239639637375, -0.0247137551937, -0.065673424327, -0.00194430911053, -0.0238809760272, 0.0392970404551, 0.0889640178335, 0.0113196290797, 0.0739530206612, 0.0533051596901, -0.0707697194017, 0.0321997734372, 0.0186096472486, -0.0510702948006, -0.0481057142765, -0.0198110708303, 0.110870339474},
	{0.0366936637727, 0.047730612903, 0.112636233234, -0.102590979699, -0.00954571755292, -0.113808240712, 0.0166888137191, 0.098980147291, -0.00780269716663, 0.0976772575323, -0.16788296943, 0.0777882578695, -0.0718068104618, 0.0613847004067, -0.200139126112, -0.0595261230236, -0.086336350523, -0.03629774311, 0.0685858852363, 0.028601472782, 0.043702904625, 0.00128878808926, -0.00884890240523, -0.0346218207431, 0.0214373977201, -0.128449213689, -0.0444145995543, 0.108588402094, -0.0313653813741, -0.0315075357701, -0.0244930082994, -0.00503389435181, 0.0438560855051, -0.00729103887574, -0.0869397620043, 0.00462084594357, -0.00298343165814, -0.104615774201, 0.000571390384186, 0.0786802412586, 0.0456672574777, -0.042823736853, 0.0154271547804, -0.00239707630467, -0.0964258684096, -0.0244892330148, 0.0996195693472, -0.0249108349735, 0.109803354172, -0.120975606302, 0.0213060843027, 0.070691637181, -0.00357798511819, 0.0602097178232, 0.0084527817931, -0.0618365646234, 0.00022896909422, -0.0131147102683, 0.0690147737481, -0.106285713144, 0.0123315289162, -0.00258463996193, -0.0710462779878, -0.0474469400854, -0.00672564271045, 0.00480504826784, -0.0176589834992, 0.0719571501282, -0.141163614541, -0.0736390463335, 0.0626548868554, -0.0367832226968, -0.0743999842456, -0.025770912576, 0.0935955469345, 0.106975262953, -0.0168884639072, -0.0153505595474, 0.0151746092296, -0.157691330287, -0.0302532472513, 0.0733099307153, -0.145116615124, -0.0381170403949, 0.0600386611691, 0.0585618412812, -0.0597719954589, -0.0127193026528, 0.123292992549, 0.0135887958378, 0.0370670192419, 0.231768625354, -0.119204768635, 0.0841648246292, 0.0975210181625, -0.00388419150899, -0.0473718614776, 0.0812126269165, -0.0217119696718, 0.0643581745004},
	{0.174902999345, -0.0312606641234, -0.0706662186638, 0.0582463896269, -0.0372967231408, -0.125622235901, -0.0102260833554, 0.0549533216201, -0.0161075740747, 0.0962494354989, -0.256299222376, -0.0188741824577, -0.040273289366, -0.0188385707024, 0.0559259119481, -0.0555792364315, 0.0383439907083, -0.0621524025131, 0.0238872787116, -0.330266554954, 0.00709329368384, -0.00289943047599, -0.00550818654079, 0.0981795260758, -0.0767999317076, 0.0326085005921, -0.14543740657, 0.0916350017312, 0.0848435551154, -0.136944764274, -0.0137717390668, -0.133332801422, 0.0929018211825, -0.0373501446686, -0.0200100852522, -0.033184207985, 0.0982023805467, 0.146211876592, 0.0166470059442, -0.124653876357, -0.109971054819, 0.0905239001675, 0.0045619670803, 0.0825254231623, -0.0584898563594, 0.0739849914891, 0.113734553313, -0.0385673498213, -0.0120945595407, -0.0633897804846, -0.0436989058834, 0.110086061771, -0.0127806027221, 0.0767431601219, -0.00849008065525, -0.0948000260265, -0.0219991515902, -0.00876707068415, 0.107236571028, -0.0520631823969, 0.286304710308, 0.00982550550675, -0.0378142069575, 0.018078682463, 0.118072037611, -0.0156015965818, -0.000715395576492, 0.000692083162372, -0.226991947597, 0.013960332094, -0.033444067579, 0.0490011284132, -0.0342305797135, -0.0409288906295, 0.23340626413, 0.0714064729178, -0.0766256341244, -0.0640434249384, 0.0131506331977, -0.212355937077, -0.0278604132967, 0.104647590549, -0.0153111134423, 0.0265966557936, 0.0953430418828, 0.291775198839, -0.116451028265, 0.00136306697803, -0.055863081908, -0.0122066505062, -0.0256873886662, 0.23462866598, -0.214068346163, 0.155460802139, -0.0137593189661, -0.000392645652036, -0.0471644877357, 0.0561745787541, -0.0264347734487, 0.0875301566303},
	{0.161286579871, -0.117971518544, -0.0304133520662, 0.150216828813, -0.0886156476462, -0.0560172449394, -0.0293838433502, 0.117348128044, 0.0069604661139, -0.0866474808986, -0.112568347004, -0.142846004857, -0.0874477980745, 0.0650690862078, 0.199317157718, 0.0798948763542, -0.00377973694733, -0.0449529653934, 0.0248469528616, -0.268717237818, 0.0222672084294, -0.0154161285901, -0.00401672966427, 0.0278469447047, 0.0169223812617, 0.159559450079, -0.0562401714167, 0.0323824314804, 0.070284960967, -0.0889037580903, -0.0690615337137, -0.0936839583102, 0.078559978363, -0.090587881189, 0.0779353873565, -0.0449151311032, 0.0848757650691, 0.111388427705, 0.0649600736191, -0.0709837828267, -0.0304377795601, 0.0916656528963, 0.0897784831172, 0.186815158497, 0.144459637159, 0.0347612161008, 0.0683608514439, -0.0240407208049, -0.0617495883531, -0.0381707512908, -0.00252227963026, 0.0939730273416, 0.00594291605133, 0.0383904972452, -0.0432254925252, -0.0220919451992, 0.00168462067394, -0.0174588881538, 0.193467856708, -0.0628010257997, 0.204899200459, -0.0114438846149, -0.0427191777704, -0.0872562818338, 0.169754104813, -0.0114344554351, -0.0107619696594, 0.0049008898453, -0.171858510997, 0.0400196637045, 0.0236613110752, 0.0710567676345, 0.00731481723379, -0.0094969698742, -0.0496290720703, -0.0293533259978, -0.0651922157828, -0.126844783378, 0.0273748242022, -0.0542150345415, -0.0174489121494, 0.11618186634, 0.148194767133, 0.0764882108761, -0.0099150444371, 0.0455762021961, -0.0220154614637, 0.0127884908504, -0.255795578693, 0.048272751586, -0.00786152017976, 0.199892627011, -0.196896557416, 0.103351751711, -0.0561098056991, -0.018587556536, -0.0357250472329, 0.0126598757594, -0.0266880596771, 0.0663166133803},
	{0.194058601789, -0.0391229997182, -0.107546056443, -0.0333087592742, -0.28588932664, 0.0839771650073, -0.0703082532541, 0.0483428212698, 0.00410198574706, -0.139278391531, -0.0016171015008, -0.0935193651281, -0.123898369882, -0.150663900448, 0.0316061196593, 0.0149737808566, -0.0558462853386, 0.00195992398883, -0.0937397002509, -0.0462488323, -0.178802197085, -0.00753432786456, 0.00285903834428, 0.158954528116, 0.0275428171448, 0.253791574368, -0.0313674804511, 0.061424453802, 0.141615938761, -0.052044602921, -0.0263087213647, -0.0776661842818, 0.285797363599, 0.0709120129656, -0.0791623284486, -0.0145411128321, 0.253650672233, 0.104359932651, 0.133621767997, -0.20284723617, -0.172951062981, 0.105740520029, 0.181488299423, 0.113866189726, 0.119820369573, 0.0633685548772, 0.118275638742, -0.0315154508688, -0.20202577688, -0.013722082195, 0.0182774406124, -0.0656887767848, -0.00878610932012, 0.117913278475, 0.0931101014949, -0.218169581878, 0.000479590221977, -0.0102939633032, 0.0995330650631, -0.0990701950918, 0.147534865117, 0.000718840955184, -0.0627596212916, 0.031824935376, 0.143445437849, 0.011662964934, -0.0180558243903, -0.0600211151061, -0.105176012608, 0.0700760137588, -0.154697833527, 0.00212293675583, 0.196418211317, -0.0423741192095, -0.138238041135, 0.0618442903732, -0.0540419025078, 0.091913925978, 0.110061658847, -0.0791755550273, -0.0161781875854, -0.0273355875009, 0.227462460152, 0.191566596594, -0.0109524208056, 0.121175717835, -0.0777369216992, -0.00554417154628, -0.380326896299, 0.10552599841, -0.0827327761931, 0.276945403317, -0.159254130293, 0.046317239303, -9.20248797108e-05, -0.00297173018928, -0.0222133906043, -0.0833185433144, -0.0336273350766, 0.204378192631},
	{0.235268477128, 0.0438383139551, 0.0216429734013, 0.0212306935878, -0.238716314302, -0.0602653069162, -0.0374146925106, -0.178605375856, 0.0111281449103, -0.162809761023, 0.00428472574992, -0.0223173564168, -0.197196555034, -0.114300703903, -0.0804428923012, -0.165280943082, -0.0587639997053, -0.00861406458257, -0.0928807019503, -0.272965710089, -0.041409497944, -0.0057811485436, -0.0026964441643, 0.0709661623475, -0.0518947103903, 0.267637673737, -0.0434155844465, -0.0329322428288, 0.0548300541288, -0.0120003196881, 0.012990820824, -0.0769922459711, 0.0897523722982, -0.0151625623924, -0.127030271202, -0.0325242327243, 0.358870205263, 0.138396940463, 0.048557733358, -0.151666710067, -0.287553422412, 0.0755940282966, 0.234706529737, 0.0466399400936, 0.074776966632, 0.199780652856, 0.10524759997, -0.00257379971457, -0.216706956672, 0.1296009179, -0.0924397384295, 0.0585069156663, -0.00527353840088, 0.244736861379, 0.255207876079, -0.274195371033, -0.00515168885416, 0.0175441763965, 0.084196231264, -0.00479022958034, 0.187639766507, -0.00304620463971, -0.0408682943957, 0.0111667117598, 0.166274536621, 0.0126095769948, -0.0143129633465, 0.101784899253, -0.318183540515, 0.0295317316967, -0.190700463074, 0.0146955007285, 0.20284440369, -0.0800799140627, -0.00554379004873, -0.214903274796, -0.0563952700157, 0.0979522057436, -0.0123894965093, 0.00839926317879, -0.020872956142, 0.0939688988454, 0.217201954384, 0.236449710333, 0.053566487447, 0.346698007766, -0.157198186314, -0.00668885631604, -0.399915535966, 0.0465204434094, -0.115706889659, 0.191291682358, -0.0707115363084, -0.089227489778, 0.103059654097, -0.0179231174676, -0.030430655506, 0.0641375321172, -0.0124233762148, 0.232214167509},
	{0.0500500948294, 0.15099108068, 0.0884391631089, 0.124283064588, -0.152550249504, -0.0381077968036, -0.0522552172032, -0.103335925167, 0.0180239505804, 0.0969254942937, -0.0512928109881, 0.172563047367, -0.0834679148252, -0.205904577861, 0.133784047147, -0.0919506540854, 0.1079704904, -0.0302856326151, -0.104059615134, -0.428280272275, 0.0920716111761, 0.00306551994097, -0.00204627436598, -0.203303889873, 0.141216314616, 0.228156693699, 0.0969101823086, -0.122878219983, 0.168760799926, 0.129447604743, 0.000682138497316, 0.0951775581026, -0.249931638504, -0.0672992403425, -0.139879231179, 0.00865076979685, 0.305699275935, 0.272254834091, -0.0164149365959, -0.0355522539533, -0.27900767412, 0.184502952804, 0.161882918389, -0.0771672285638, 0.166205255723, 0.329858642388, -0.00347968633945, 0.0017209167118, -0.084277823087, 0.142767444182, -0.0911606020286, 0.0902595755336, 0.0106245792325, 0.0989200846063, 0.247992169996, -0.251106012392, -0.00580436904842, 0.0151220486448, -0.131681368921, 0.0760041644572, -0.061257776683, -0.000679387875011, -0.015856035121, 0.0919669287604, 0.140903332193, 0.00457566679369, 0.00356323907587, 0.133448054723, -0.271780769997, -0.131297586605, -0.224689314756, 0.0193185890641, 0.139842015622, -0.0195393642788, 0.0721752324766, -0.0937561167408, 0.181561991345, 0.123582366183, 0.0469818235277, -0.0501621874384, 0.00167091513472, 0.0490849856704, 0.166630634702, 0.224143216423, 0.204238539912, 0.176011043101, 0.00853042671411, -0.0107987637678, -0.130189585047, 0.0594463490385, -0.0786772660718, 0.130208884999, -0.296913731315, -0.177788716181, 0.0905525060101, 0.0149464575717, -0.0368861901076, 0.213298594866, -0.0211234642584, 0.0433674436364},
	{0.0295515298852, -0.112040864658, 0.244601147617, -0.016723782474, 0.0368564698856, 0.0307724273872, -0.0187764367615, -0.0595784704952, 0.000178620841097, -0.0295648053496, 0.0619985446205, -0.0686060764904, 0.0986680415569, -0.101330879877, 0.123506588808, -0.222679081565, 0.157502978227, -0.0188344852612, 0.103846900271, -0.0391837275248, 0.195001068264, -0.0168793257613, 0.000182859967486, -0.0839354068177, 0.00461167359491, 0.062029091007, -0.03531864319, -0.00105957496661, 0.217990933617, 0.0494965318575, -0.128506007182, 0.0255639375122, 0.104566432378, -0.0350264492546, 0.196875948657, 0.00857880448754, -0.129116563695, 0.0223929414365, -0.0644906229717, -0.0552777706784, -0.380011422311, -0.117612906369, -0.160936180169, 0.0250880421858, -0.0115766683996, 0.102589437635, -0.00127351522134, -0.00590211422668, 0.053560751745, -0.0997285740068, -0.0874861278217, 0.157292887248, -0.0150907634709, -0.225077901722, -0.0987335388841, -0.25244899164, -0.00582813981949, -0.00460076486146, -0.174398672089, 0.139612947469, 0.0750785839461, 0.0193062266004, -0.00678795122402, 0.0204652817215, -0.0218803321188, -0.0151303632929, -0.00473362285259, -0.0723716857868, -0.270647334256, -0.181003636586, -0.0956229333124, 0.127140270108, -0.027201623684, 0.0556457462141, -0.186283516876, 0.0922636747495, -0.155365882042, -0.117768104366, 0.203039694806, -0.00530730828924, -0.0116074264456, -0.101825665496, -0.165998979284, 0.0341958035172, -0.0390480855083, 0.178911737786, 0.00450329736634, 0.00458807918878, 0.0427398328133, -0.00181027214415, -0.0587369678718, -0.183966849724, -0.112777937084, -0.0299228068918, 0.0696368908732, 0.00296370713106, -0.0629996406472, 0.10027675718, 0.0512638107885, -0.0393997626731},
	{0.0331098313245, -0.00537350089985, 0.193454215442, -0.0209335130943, 0.115806206923, 0.024172454263, -0.00335832379346, -0.148339095141, -0.00730405072271, -0.0551492891078, 0.00504513488184, 0.0563820230334, 0.108035525507, -0.145857928114, -0.0143570836305, -0.0798342888387, 0.0730741602535, -0.0129743363252, 0.0965881866827, 0.19068981896, 0.0985765634037, -0.014358718808, 0.0101847055006, -0.108399389337, 0.0151152803367, -0.151945582792, 0.156844138587, 0.114678761758, 0.119184688953, 0.139692574376, -0.122425730092, 0.143493276523, -0.0441532333303, 0.0766527657404, -0.115980058697, 0.00215438394445, -0.076794823029, -0.000743594466411, 0.149612955832, -0.0494476483457, -0.219132137489, 0.0482084415718, 0.159032635242, 0.0101782172788, -0.133018659944, 0.0456711189647, -0.141189084505, -0.0139977037511, -0.0505542484063, -0.366100549056, 0.0296098846592, -0.0382143345258, 0.00604242015762, -0.220492519809, -0.138108936756, -0.198378341864, 0.00056931586406, 0.00405063019093, 0.0303730182568, 0.0187616857824, -0.0892814395662, 0.00545601867485, -0.0194535558182, -0.107017854957, -0.129250457615, 0.000861718953061, -0.0105943925136, 0.000867493441873, -0.235866835796, -0.219731710621, 0.0723875741483, 0.0488504703487, 0.0577381612226, 0.0790073350454, -0.110199196847, -0.000440813930967, 0.0239682147907, -0.0226487768949, -0.00595004795479, 0.0287252757111, -0.00561201137899, -0.018697405465, -0.27388026235, 0.0169930256753, 0.0847425945212, 0.0877027270724, 0.0116855255943, -0.0205610688149, 0.0229568614342, 0.115423167003, -0.210033469788, -0.0594215623971, 0.014131304866, -0.232287518521, 0.0030668117602, -0.00509259082013, -0.0733334616795, -0.0404305099131, 0.0299805535152, 0.0249734497315},
	{0.0449559562801, 0.0266743189673, -0.0580179390831, -0.0594443453568, 0.0750559810831, 0.0732817914485, -0.0424017262413, -0.135952850316, -0.0233039607641, -0.0765147907416, -0.156418049593, 0.097750225201, 0.118977853714, -0.10998642389, -0.0351740215064, -0.0487370701211, -0.0214119390969, 0.0290036347441, 0.113922193667, 0.119540398575, 0.0617184153359, 0.0175760630854, 0.00132602528785, -0.173731144382, -0.122026290256, -0.0325107817022, 0.159509353614, 0.117414367004, 0.000707026961135, 0.116734945894, 0.147955371314, 0.139918158965, -0.177342694966, 0.079788168954, -0.152631051219, 0.00147162162609, -0.0344989824647, 0.0595007807201, 0.154235602641, -0.0314288948979, -0.0872770183971, -0.019618057734, 0.133392999542, 0.0122072450013, -0.0289468775946, 0.124277629178, -0.00533529291527, -0.0402614863583, -0.0389909028091, -0.315988690624, 0.0715653159682, -0.127377349086, 0.00234604974632, -0.0258403500539, -0.0262652192572, -0.166513815401, 0.00174781812026, 0.0175124747879, 0.0892876106597, 0.0241375559933, -0.0311545153264, 0.0114576537148, -0.019275036195, -0.0548778282247, 0.0159062681688, 0.00666520992805, 0.0151134617402, -0.0605438379078, -0.235207238796, 0.0169189940997, -0.0843017962803, 0.0380992746027, 0.128257395712, 0.145029066513, -0.0865723532573, 0.0113475543231, 0.0681787438285, 0.00891137936746, 0.050673139611, -0.0359198424596, -0.00298586278921, -0.310093924809, -0.221748096832, -0.0516568668872, 0.0626851656289, 0.134845147418, 0.0347449364784, -0.0127002985575, 0.0328984037911, -0.0162564051995, -0.0653605284241, 0.0393918751055, 0.0804992365125, -0.214395301518, -0.0392385374255, -0.0117318278573, -0.0465545306329, 0.0503825185584, -0.00935374792069, 0.0709028303387},
	{-0.0291766547868, 0.127467573531, -0.0243695999434, -0.13966734603, -0.0737535704213, -0.0517250883287, -0.041693238286, -0.169803099862, -0.0307144026495, 0.0768714272811, -0.209978658547, 0.0685371447481, 0.111224627647, 0.0604481013883, 0.105115925385, -0.0366569391131, -0.0854462926723, -0.0157692640269, 0.0242895355149, 0.212735075529, 0.0624794110363, -0.0113771998167, -0.0111420613939, -0.171115346182, -0.060309587084, -0.0977560963989, -0.0398040636393, -0.022518181317, 0.00750375061112, 0.0713558344558, 0.12142094684, 0.111351778937, -0.359412070422, 0.0715646545002, -0.134719844034, -0.00272658939895, -0.013977348836, 0.0251751237421, 0.0263041417676, 0.133658079727, 0.157357297422, 0.0516692440997, 0.0889628654017, 0.0106516827263, -0.030744018463, 0.00778483728949, 0.0278345305524, -0.0792378482061, 0.0824185752164, -0.259729857853, -0.0209988295317, -0.151397652747, -0.00207380413387, -0.0762275648012, -0.0561016574201, 0.107755768335, -0.0142873057325, 0.00268414436222, -0.0519477436235, 0.00123950185449, 0.0353294993881, -0.0160885684126, -0.0362964969923, 0.0210708006998, -0.00625228504002, -0.00545221388516, -0.0250707767027, 0.0196306550396, -0.244854596974, 0.0433748459886, -0.00387766669384, 0.0545340352334, 0.0825784881086, 0.00839516004683, 0.0434960488362, -0.0403016350601, -0.0223737686476, -0.0612467304124, 0.0229460709925, 0.143935633704, -0.0179689936498, -0.182964168924, -0.0395535329595, -0.10936637718, -0.0193501931224, 0.0207143728861, -0.0342547545104, -0.0107106580952, 0.0695875394736, 0.025902161134, 0.0171570175996, 0.00468066677275, 0.241115376191, -0.0928248488043, 0.0360715141904, -0.00227545439767, -0.00826309850336, 0.0909617925517, -0.021419480491, 0.168403069605},
	{-0.0472337728223, 0.111701740078, 0.16060607868, -0.0934305903538, -0.026235288326, -0.0415449115379, -0.0373912515599, -0.0109352319115, -0.0254401640609, 0.0498055696205, -0.0238881641808, 0.0421195135964, -0.0157655318577, 0.0499441147233, 0.0845230870039, -0.0245063329662, 0.0286161003153, -0.014947434877, 0.0421103638874, 0.147956709157, 0.0246374960404, 0.00554440906613, -0.0115152613526, -0.120607288997, 0.0403254035115, -0.223734941136, 0.03492064742, 0.0510729646372, 0.0478523263524, 0.00659984848536, -0.0293829432073, 0.00853181236078, -0.0903347612799, 0.0843802786908, -0.118913509511, 0.0150724646332, 0.150555057596, -0.0316682252609, 0.0647920475975, 0.18784571133, 0.200638041519, 0.0520377906298, 0.119077534719, 0.0414300172622, -0.0176498133803, 0.00637326269301, 0.0316231753414, -0.049129543731, 0.0305362634622, -0.135919317391, -0.0220164121979, -0.141905150796, -0.0138163728146, -0.0515251729707, -0.125626659255, 0.111058225193, -0.0104684529048, -0.0109879108104, -0.00417846700262, -0.0492789943124, -0.130823876158, 0.00599190787395, -0.057133191459, 0.0395379983796, -0.0129721745451, -0.000327455074061, -0.00986078914005, 0.0937544597251, -0.282800407718, 0.0249074970413, 0.0405624858087, 0.00264333773127, 0.0376231675247, -0.016872398935, 0.0264295548462, 0.00579669021933, 0.0411971870237, 0.0656731820796, -0.0362616667751, 0.108674294643, -0.0423310038541, -0.0338677110353, 0.162507760919, -0.0828539795688, -0.021931119717, -0.0621235218855, 0.0136915113631, -0.0161739741585, 0.0276871071951, 0.0358100763724, 0.0195226935027, 0.0530862693506, 0.117657758591, -0.216897604351, -0.0178364462505, -0.0273539494643, -0.0380141296973, -0.042555646466, -0.00554565284971, 0.0975201530751},
	{-0.106546742174, 0.00190638914567, 0.161476949552, -0.0450732893743, 0.0225487150266, -0.0326843769049, 0.000367110374329, 0.00825336885749, -0.0200672244715, -0.00280952959843, -0.200640900962, 0.0506056768399, -0.124859903076, 0.0389977896444, -0.0527427174024, -0.0692532452415, 0.102956206535, -0.0460423247159, 0.0963953503029, 0.121283720641, 0.12486092282, -0.0274632208463, 0.00423898565264, -0.118205340809, -0.0347582282328, -0.165811636092, 0.00166470003507, 0.0122228112568, -0.048159931148, -0.0376828558204, 0.0340302832588, 0.00662537260075, 0.0450668369495, 0.0286186788797, -0.113199145663, -0.00955431331942, 0.0948812334091, -0.222977477747, 0.037405640261, 0.214136786169, 0.176638787607, 0.0365385910182, 0.145786075848, 0.0770438360227, 0.0924182531669, 0.0708393012845, 0.132212016148, 0.00478214947579, 0.12727785232, -0.0554437417377, -0.0654103474614, -0.0511185621111, -0.0129771619458, 0.067944037307, -0.000430488372629, -0.0209758220015, -0.0181528855992, 0.00120851357113, 0.0374348725825, -0.251982111825, -0.254251290262, -0.00222434484249, -0.0350149381675, 0.0894240046752, 0.0250212456893, -0.00288001867628, -0.00986422052311, 0.0230610191958, -0.313557825584, -0.00440367384844, 0.0175589501672, 0.011066374907, 0.0894342023701, -0.100364656647, 0.0804698713239, 0.0641237596462, -0.0188010314994, 0.10073208445, 0.0879041018185, -0.223539009045, -0.0279697441093, 0.0762654634782, -0.0150478666775, -0.0817400125767, -0.0472654686991, -0.174662593937, 0.0271621752652, -0.00663119057032, 0.29563413287, -0.0526034744413, 0.0803297435645, 0.00897321552308, -0.10856130822, -0.140774253776, 0.0237605781853, -0.0110107996718, -0.0408967516131, 0.0663547986904, -0.0152123831034, 0.0912490089298},
	{-0.0609747669938, 0.00454390777344, 0.121348497734, -0.0281602421475, 0.0579500472292, 0.0025278830316, 0.00213976618947, 0.0785212264456, -0.0240105957643, -0.0741976979975, -0.289458280123, 0.0535732165405, -0.0280894795885, 0.213916037759, -0.0972821390101, -0.21000853893, -0.0871381113859, -0.0445920256088, 0.0319222316052, -0.0741555322469, 0.165573777513, -0.0279122654391, 0.00511349622294, -0.145097889937, -0.0929769000124, -0.192379415453, -0.13862215932, 0.0241965471624, -0.0538481363462, -0.145585617978, -0.0517764171925, -0.14022365579, 0.175733849086, -0.0359559093252, 0.0620576007886, -0.0228594171952, -0.0707072540749, -0.157156677231, -0.161462743635, 0.221412581481, 0.286450818852, 0.118840862147, 0.0575048524914, 0.150104427559, 0.0623580534823, -0.00143788245376, -0.0444241913712, -0.0102483627775, 0.0281969053457, -0.130941324641, -0.424143928332, 0.163628061543, 0.00755563900647, 0.00517464138298, -0.0553615312383, 0.0642996800475, 0.00629910746573, -0.00916350547776, 0.148567384928, -0.0471670870736, 0.0620342963998, 0.00853734838417, -0.00211998251259, 0.0362397918912, 0.0722019821153, -0.00974213604435, -0.00298764432302, 0.0624526580445, -0.207454215385, 0.0906941108959, 0.0397472014371, 0.135960594657, 0.0381662775891, -0.114154697799, 0.087950233621, 0.0391760526113, -0.113876577096, 0.0942569225703, -0.103958731178, -0.289047872081, -0.0365401435177, 0.0280227129944, -0.229067693515, -0.0291555281632, 0.0102332267498, -0.00498365922747, -0.0904000936719, 0.0229187890896, 0.504653770003, -0.282690120447, -0.062614279008, -0.15356579871, -0.138944867714, 0.117800095899, 0.0091319771404, -0.0316450995096, -0.0117685727089, 0.0376269465072, -0.0130982237594, 0.0886249128393},
	{0.0219717681758, -0.107375498355, -0.0960547938007, -0.0324363961862, -0.0558250850153, -0.0229086944517, -0.0358478988946, 0.15960475649, -0.0287951926161, -0.0325793881607, -0.0332922393747, -0.0570862900164, 0.0417873061051, 0.186028073316, 0.121240621223, -0.0445163886201, 0.0628627222223, -0.0318381504345, -0.143855448639, -0.154782709594, 0.0885682309681, 0.0254668681174, 0.00407427944131, -0.178910201328, -0.111519672969, -0.0881421366282, -0.0591728198042, 0.0723784831342, 0.0913749472137, -0.117846175386, 0.0981539910187, -0.066915267439, 0.288998293206, -0.162525080048, 0.197180699576, -0.0346934630708, -0.0704072690926, -0.0575985688239, -0.153137336018, 0.158310137719, 0.246431932726, 0.180639687589, -0.168998491108, 0.213805466867, 0.210356804079, 0.127870836301, -0.108697939443, -0.0272854786105, -0.0120260537156, 0.00172352852289, -0.18527227676, 0.0803429624796, -0.00761187526364, -0.301572863104, -0.0149312761651, 0.0430340564985, 0.0188958421683, -0.00332765685433, 0.0198578703676, 0.0367988488646, 0.138228371542, -0.00872785638921, -0.012966594737, 0.039496892581, 0.110277409563, -0.00757365162579, -0.0216147789669, -0.092649795668, 0.000870996456873, 0.0788391328452, 0.0323525156041, 0.113257141578, -0.00103097707575, 0.0393208550399, -0.069710462954, 0.0230700831467, 0.11748078088, 0.133406721333, 0.0461832229767, 0.10397339697, -0.0214765279618, -0.156446367511, -0.0204548020209, -0.105322737124, 0.0781557128509, -0.0977556969645, 0.0378098468825, -0.00560672497613, -0.0323867213254, -0.385982252296, -0.0206970707383, -0.302664633516, -0.221147119816, 0.116962907162, 0.00658662867614, -0.0309734973921, -0.0126147006174, 0.0572498572104, -0.0227015476341, -0.0207487413462},
	{0.0440072726074, -0.0967930976068, -0.0860303280198, 0.110048350705, -0.106059451415, 0.0995976685403, -0.0939240527849, -0.0419735263267, -0.0356660341541, -0.259834743182, 0.171411126709, -0.201106808578, 0.0086684994346, 0.0192578992568, 0.131072226473, 0.0112502427802, 0.0084256265945, -0.01917574147, -0.14134050372, -0.17800995738, 0.104563182689, 0.0121572487672, 0.00964571480287, -0.126845571263, -0.0402088638742, -0.0158131936174, -0.104323216815, 0.139252771698, 0.137397851383, -0.114368105496, 0.0658332169227, -0.0909582929173, 0.0773966765586, -0.141179403169, 0.33220092344, -0.0307001311484, -0.0156840902118, 0.152906117267, -0.184872658328, -0.0282346308084, -0.0218072529859, 0.117212439246, 0.134620626014, 0.275408365774, 0.198685553531, 0.0392320551113, 0.0306826493849, -0.048419610797, -0.00174287379173, 0.103988836639, -0.264215599647, 0.0601012626882, 0.000797316127899, 0.0440779688625, -0.0130969546954, -0.0304668195154, -0.00384834999642, -0.00122008130762, 0.148087476028, -0.0881821480263, 0.183965956677, 0.00211763888197, 0.027580436945, 0.139324135652, 0.249363818338, 0.011034408031, 0.0110822725457, -0.219386280173, 0.0340541224897, -0.0075640408482, -0.0427303089867, 0.197234851048, -0.0269484431298, -0.0662513398991, -0.103393364614, -0.109906695867, -0.209722214447, 0.0984084823423, -0.0050704874773, -0.0163609617544, -0.0177331842509, -0.246314532466, 0.133239502025, -0.0737718948363, -0.144537696919, 0.0805717456849, 0.228699502392, -0.00641322933524, -0.426494787164, -0.0487006028098, -0.2050276968, -0.304110830438, 0.0100318931668, -0.0601181529623, 0.145301066005, -0.0283107811225, -0.000806592219875, 0.07009619477, -0.0124378019578, 0.208936418721},
	{0.0129912732179, 0.0292653046088, -0.0284387729248, 0.0389788056979, 0.00763844643416, 0.152791087828, -0.0625238184355, -0.0415669159375, -0.0095544168662, -0.235844666268, 0.194500908517, -0.118867586416, -0.065038900199, -0.0196332627509, 0.043835774012, 0.172927089413, 0.0367448275954, -0.0149126790561, -0.27676608216, -0.205026494762, 0.0270704770262, -0.0051178629059, -0.00961818745498, -0.0580739318185, 0.053843491037, 0.0191156222429, -0.102768136283, 0.141957001663, 0.0997370252619, -0.10482527437, -0.0698684936431, -0.184047774271, 0.206429521193, -0.136734017925, 0.163504388077, -0.02039837801, 0.00850455702489, 0.228098061211, -0.322129897503, -0.111806334358, -0.295132669864, 0.217909610603, 0.0522305176749, 0.15890523363, 0.163796187122, 0.196153397686, 0.0558037437001, -0.0271518611459, -0.177829443044, 0.30513424578, -0.277705798503, 0.147448368073, -0.00684964480433, -0.0948726980707, 0.0212846325297, -0.266557218021, -0.00751891976659, 0.00229613991582, -0.0460488326776, 0.0571773475522, 0.0368477350135, 0.00574599177648, -0.0260850171695, 0.0856567194161, 0.153152595704, -0.0236996441002, 0.0167547346048, -0.114376025778, 0.0491512627985, 0.0387801115061, -0.151659067799, 0.180046369454, 0.0258867004114, 0.0716979966122, 0.0985125310771, -0.0490575388559, -0.146653235974, 0.235392458567, 0.0646023305751, -0.0589405539167, -0.0286916894106, -0.211245097733, 0.183808332339, -0.131311950282, 0.00229022194811, 0.235023686837, 0.0648893901278, 0.000748809442745, -0.239370632559, -0.191998525758, -0.119995691014, -0.156138211433, 0.0872104656127, -0.17180842618, 0.131994522067, -0.0299966494043, -8.46098304327e-05, 0.0496187057219, 0.00110059617721, 0.130398905076},
	{0.193485631122, -0.0965208605596, -0.0778355566702, 0.20491141141, -0.0521409499467, 0.200397609104, -0.0519104605112, -0.295867985353, -0.0273663304012, -0.234612109952, 0.19526013155, -0.111425963897, -0.265795601547, 0.0147944056405, 0.046902431277, 0.0506500531775, 0.115217600505, -0.0290258560685, -0.151575842643, -0.335648972241, -0.0300773960362, -0.00635464059986, 0.0048079048508, -0.0971731865235, 0.0293844783394, 0.0400034023153, -0.073324839669, 0.0559718899189, 0.285806450532, -0.165030390911, -0.132389717385, -0.212296884045, 0.00444734809978, 0.0446563405822, 0.0411281120738, -0.0255382308777, 0.169655499359, 0.280450378336, -0.213185782519, -0.17110429915, -0.243898335931, 0.144237094712, -0.00572741090186, 0.128165829407, 0.314995566886, 0.287613340199, 0.103245927518, -0.0233659987992, -0.298364633007, 0.353241946989, -0.362867217995, 0.0267838153758, 0.00591784556591, -0.335800888255, 0.0618284203589, -0.197705865284, -0.0127361901436, 0.0123400484832, -0.13292610229, 0.139979948659, -0.0920300845713, -0.0132279186595, -0.070860930296, 0.0981487450332, 0.267751709236, -0.00897854243795, -0.00737869710007, 0.0255353629723, -0.0292110479742, -0.0245869304179, -0.283979454289, 0.118760584211, 0.225698111815, 0.0238427747553, -0.0950348903545, -0.0173364035243, -0.0733478707923, 0.20438863472, 0.00206861147268, 0.102513135437, -0.000190634440104, -0.155789450118, 0.158517687542, 0.176129794055, 0.0689658188808, 0.130084508704, 0.0391109673493, 0.00940696442154, 0.0147113947437, -0.125862664322, -0.188870402058, -0.0280596276182, -0.0267822582985, -0.257254942681, -0.00265359854846, -0.0233322802646, -0.014630435392, 0.0463953476265, -0.00903116263097, -0.111148797681},
	{0.177397523412, 0.107089080512, -0.10651594385, 0.334392820504, -0.0805616394234, 0.163810778931, -0.0566513501879, -0.388905108326, -0.0196587848157, 0.0337636008513, 0.104299882725, 0.0934532333664, 0.0737332468481, -0.286514948551, 0.140096930369, -0.00412409828998, -0.00414403380368, -0.0219582455367, 0.021798197836, -0.252853942531, 0.0343246088795, -0.0099542433591, -0.0112620065362, -0.336872589941, -0.00319853313287, 0.099472169387, -0.116581146631, -0.104006686419, 0.140549190642, 0.068247348327, -0.165139317491, 0.0283460144603, -0.137726546922, 0.155332180088, -0.0832979952881, -0.0105026774113, 0.437013694504, 0.467485101755, 0.305207521428, -0.210540205106, -0.192175552693, 0.25309749336, 0.36615860008, -0.216120095682, -0.0852968641357, 0.154274079686, -0.101430122816, -0.0215970599664, -0.206038108115, 0.1658663505, 0.115866194581, 0.159795043541, -0.00537243669669, -0.405139496282, 0.145809487466, -0.190483950183, -0.00973623701681, -0.00663237719973, -0.168319698419, 0.095325552767, 0.17430326823, 0.00348437999526, -0.0112366502893, 0.0872539667093, 0.0785827069565, 0.00568500672783, 0.0104302156748, -0.0376650819273, -0.167025075662, -0.136652801554, -0.258659467915, 0.165682257634, 0.440838402024, -0.198143560565, 0.131607560556, -0.188955936023, -0.158860388311, 0.323903663098, -0.0105695151116, -0.231009892975, -0.0106534021711, -0.0754755374012, 0.346858595719, 0.477190338121, 0.0575394672063, 0.288240750394, -0.164461388453, -0.00411443020221, -0.0248487672279, 0.201131395436, -0.0905000295307, 0.335526762896, -0.0870112759678, -0.295085168468, -0.186364105526, -0.0162340551185, 0.0280996631185, 0.244432420745, 0.00642418452584, 0.172439671908},
	{0.0528729890285, -0.107505082737, 0.146520224365, -0.0481881794729, 0.0724107052132, 0.170098246323, 0.0152297244592, -0.109589750575, -0.025927732159, 0.00987757995008, 0.162122834611, 0.0443391389018, 0.146250844589, -0.241277396552, -0.00453773880903, -0.253149895721, 0.221407170446, 0.000128425478807, 0.139786664822, 0.105382244872, 0.0785330893093, -0.00351544971233, -0.00817928354135, -0.226701582947, 0.00793966978946, -0.140567677047, 0.185948182673, 0.0852372805682, 0.0768569139932, 0.0945806744222, -0.105939786707, 0.0548963120142, 0.129824011965, 0.11929092938, 0.0391765271001, 0.00259483883292, -0.0839511043507, 0.0133965491431, 0.108375704507, -0.0630325820167, -0.240861971655, -0.0671504943992, -0.161635254843, 0.00710120815198, -0.0420944777273, -0.011447021481, -0.0865400506424, -0.0630731534928, 0.0430491746928, -0.251606576007, -0.186380135362, -0.0787390693258, -0.0138029490376, -0.179039396062, -0.171121381095, -0.255076936509, 0.00111541616679, 0.00948663464643, -0.204423440458, 0.00182255810543, -0.00156775053351, -0.0149127585982, -0.0518547871678, -0.00486580134093, -0.0148743642081, 0.00272053733443, 0.00199594097939, -0.190355773727, -0.136527480946, -0.37004596213, -0.183275267002, -0.0198498974595, 0.0909845495233, 0.0722379480952, -0.0154834562603, 0.024888588501, 0.0276874061738, -0.139940548716, 0.0415142466051, -0.0100428764287, -0.00304905262506, -0.0355848293001, -0.142246671843, 0.214939991463, 0.0305484824232, 0.232176357919, -0.036493923029, 0.00246006063709, 0.0800198107671, -0.0169307826055, -0.00263647481701, -0.126770519461, -0.0240288767423, -0.0885958947634, 0.105716595346, -0.00659523047791, -0.0528264361679, -0.0253569625842, 0.0329553314489, 0.0115621030287},
	{0.0589347681997, 0.129424331569, 0.146528144457, -0.0768178074821, -0.00736098416015, -0.00305103497045, 0.0248494842899, -0.18445086335, -0.0158469787784, -0.046378933225, -0.0286503483918, 0.135026997645, 0.102212383836, -0.134620935449, -0.0941090487112, -0.179721694566, 0.106339399512, 0.00997250122364, 0.127034129321, 0.111720332759, -0.0251185653908, 0.00136572399464, -0.00258549199447, -0.189775389212, -0.0742090851517, -0.178020053599, 0.175919765912, 0.154398020867, 0.04810336496, 0.0715566960689, -0.0876125321708, 0.0622611016003, -0.0513664267447, 0.0295436039537, -0.24018775187, -0.0168384674786, 0.0129913778979, 0.0229423410363, 0.13576845812, -0.115664005891, -0.136220204738, 0.101411815374, 0.13965168105, 0.0368911769488, -0.107717359315, 0.0178785517314, -0.14843474348, -0.0831826585758, -0.0103531964668, -0.251350562794, -0.0569148532857, -0.140122586485, 0.0080608207008, -0.0850819544584, -0.0868903183449, -0.153288581845, -0.00747389416579, 0.00781946546438, 0.0992315257747, -0.0152744695959, -0.00996640035336, -0.0139388244017, -0.0558211070315, -0.154733516014, -0.0957294977585, -0.00632526247431, -0.00725104815815, -0.0949910390521, -0.287177796044, -0.376590769711, -0.0561312443948, 0.0178823217219, 0.0687383813069, 0.115975241099, -0.0342561411853, 0.045503861715, 0.0930987194044, -0.00435192632997, -0.0979543998745, -0.0482088201708, -0.00468704896776, -0.019770834073, -0.077027068282, 0.0604218592098, 0.0955181878323, 0.136209998206, -0.0189709779762, -0.0024773316321, -0.00488566997512, 0.00939787552928, -0.153009626539, 0.11011241812, 0.156313873413, -0.192729615153, 0.0618328265927, -0.0271731892679, -0.025554310198, -0.0446767985593, -0.0126374162307, 0.140747653472},
	{0.121319523919, 0.137611298345, -0.0348349045078, -0.0504771909997, 0.0371841081877, -0.121237071798, -0.0680714406174, -0.0521248675163, -0.0207397428765, -0.0600065355444, -0.233280817464, 0.0788648212776, 0.036784135455, 0.0368026114318, 0.0149312965798, -0.158412674873, 0.00519903917615, 0.0060384635802, 0.0311515655742, 0.0463981966049, 0.0927926716418, -0.0100733271418, 0.00993461076194, -0.322216314035, -0.0854317676059, -0.152165411973, 0.0717116262145, 0.0709078856808, 0.0212583324252, 0.0482559274445, 0.149191758825, 0.084353646514, -0.0470557892534, -0.0436633767759, -0.17800378664, -0.0142532818885, 0.0354408782108, 0.0376747557527, 0.0331562100684, -0.0194833485889, 0.0327315543205, 0.108344904877, 0.198470469837, 0.103397205955, 0.0617017847443, 0.0152733480962, 0.00883058842847, -0.0510851234444, -0.0104063724825, -0.128037205621, -0.0730790299054, -0.130395942726, -0.00603133561942, -0.0709820109498, -0.0745550720843, -0.068479225339, -0.00819544865925, 0.00966596347103, 0.0933332175988, -0.0224373670957, 0.044596807632, -0.00199045333238, -0.0271833177729, -0.0141981939075, 0.0257550849772, -0.00326300706288, -0.0102565065837, -0.0348442303843, -0.383341710961, 0.0432099811537, -0.0108984405127, 0.0860173929944, 0.0815950341589, 0.0448025886233, -0.0521638709662, -0.00920646286655, 0.0998777579911, 0.0178015261427, -0.111541990921, 0.0194257104162, -0.00606901846729, -0.117047459796, -0.148855801058, -0.154336820298, 0.0962547672287, 0.108294838928, -0.0677478692918, -0.021912822991, -0.0306869439748, 0.0430605715957, -0.0829908028217, 0.0256058001964, 0.103166463439, -0.0940354804816, 0.020971386845, -0.0121662304248, -0.0271292359416, 0.0960247467474, -0.0275731666648, 0.1601476506},
	{0.0790937486515, 0.0817051619803, 0.10680690445, -0.0859441478949, -0.0287856499234, -0.163644606284, -0.0553090934486, 0.0337970903678, -0.0426567509766, 0.0822291890045, -0.0870432681726, -0.0273958717477, 0.00201151443353, 0.0653553029103, 0.0282269384413, -0.170608574196, 0.0542176228947, -0.034243574039, 0.122666055013, 0.102637609762, 0.0840676792199, 0.0154464805781, 0.00238003715278, -0.283409656509, 0.0303610126141, -0.275871587658, -0.0300086106043, -0.0177562475009, -0.0341258582209, 0.0452593423276, 0.069966104065, 0.0356139888711, -0.11038076733, -0.0701490240039, -0.0662098086226, 0.0085749184359, 0.0653231527963, 0.0560481771457, -0.0192791138363, 0.0670897304898, 0.140945446888, 0.0118462834622, 0.0899961024584, 0.0882536703049, 0.123718295983, 0.0380071982166, 0.00564142640316, -0.0332838599771, 0.00955696826775, -0.108301425662, -0.0885493448798, -0.120645401398, 0.00505537267031, -0.0337898405922, -0.120513905673, 0.051050689536, -0.00102043669991, 0.00422062236623, -0.022699294706, -0.0455849915043, 0.040388612365, 0.0173074208404, -0.0568482935562, 0.0501270540818, 0.0269269225928, 0.0162045658271, -0.0183955194165, 0.143610172298, -0.307734870271, -0.0443414944262, 0.0221451788803, -0.0206257142457, 0.00188580361184, -0.0348482069987, 0.020190743561, -0.0305566638285, 0.0751908945843, 0.0671471717907, -0.143525296515, 0.0187463548863, -0.00789567819491, -0.00306081160021, 0.0728100082971, -0.120629436919, -0.00948190441371, 0.131692297474, -0.0687550523082, -0.00357655312407, 0.0558100653382, -0.0244615665949, -0.00152572569238, 0.0608439634481, 0.0467401545378, -0.105989475884, 0.0568244752195, -0.0427225237887, -0.0206591784464, 0.0315128293069, 0.00230224697698, 0.106798509034},
	{-0.0184150658156, 0.018331419903, 0.199715236571, -0.0613981132858, 0.0248484904294, -0.0757120637387, -0.0212408731312, 0.0298730055039, -0.0233513443968, -0.00519952398057, -0.0486889920183, 0.0201414745029, -0.0410276685303, 0.0397179858796, 0.0540340118689, -0.244086664345, 0.187610844142, -0.0202877739224, 0.0539028674998, 0.0332546991486, 0.224978465037, 0.00226747817273, -0.0115675248312, -0.236062663443, 0.102786664089, -0.184525692458, -0.0391603680422, -0.00596106525567, -0.0654217083493, -0.0245624241238, 0.0390767623628, 0.0292209380836, -0.0659813152155, -0.00371462636839, -0.156156174717, -0.0270534041923, 0.17666184137, -0.152696358618, 0.0060444602486, 0.172424432134, 0.256681172246, -0.012045783499, 0.101610434134, 0.112301001907, 0.111689978447, 0.044056981694, 0.048210943032, 0.0291642478864, 0.0295061568284, 0.142665209119, -0.158249594446, 0.14257354121, -0.006093903594, 0.163399158829, 0.0530291448901, 0.0336522418209, 0.00904151203187, -0.0212609105878, 0.0539447154985, -0.0943865940151, -0.108642247786, 0.00797243160855, -0.0570860952645, 0.125457622858, 0.0406311003062, -0.00393133838306, 0.00307410983127, 0.0247569944778, -0.237895854658, -0.0554269989061, 0.0425295997293, 0.0818901702836, 0.0881154988015, -0.066759528238, 0.053466131372, -0.0553074740417, -0.0109140239577, 0.189627811471, -0.0794580885888, -0.117011182024, -0.00169540957087, 0.101276872857, 0.162322683727, -0.101468259974, -0.0360563027489, -0.175306990851, -0.0651687325792, 0.0118234600374, 0.278965844026, -0.0998462401321, -0.0106376815352, -0.0644328100166, -0.091272121709, -0.251122683337, -0.0443486694847, -0.00210560320904, -0.035749325748, 0.0547482800248, -0.0244373670844, 0.126274850497},
	{-0.110954747117, -0.0968734967009, 0.147885219714, 0.0995785071064, 0.117515338823, -0.000877305431901, -0.0085002334652, 0.109668926925, -0.00393473785497, -0.0643437940969, -0.155624795883, -0.0608975465362, -0.0448421663751, 0.176578692658, -0.0689167610935, -0.183567462223, 0.192133996555, -0.0352435614205, 0.00444169801543, -0.0252721031351, 0.0861314239383, -0.00255232680806, 0.00743492057987, -0.149081749909, -0.17624105018, 0.059830537255, -0.0396911844357, -0.0479503105586, -0.235454595737, -0.0630037819996, -0.142965424505, -0.103512727481, 0.289542041264, -0.0205519956081, 0.0870324789382, -0.0205128500146, 0.208050686077, -0.167924793601, -0.0719076031874, 0.176498459119, 0.22200609159, 0.0517287773215, 0.243874770317, 0.14985194714, 0.0536392914919, -0.00544830999512, -0.108045293903, 0.0393597506292, 0.0160162626282, 0.162834515296, -0.141117474699, 0.190805963895, 0.000274789429484, 0.166942793257, -0.0192438276411, 0.0688955823862, -0.00945556659376, -0.00488480254469, 0.290901140348, -0.235841037843, -0.240249846821, -0.00750629552492, 0.0556252772281, 0.0192819106156, 0.0171164880468, -0.0109350859805, 0.00591830993961, 0.0276868534173, -0.148047927246, 0.058083749225, 0.120032858281, 0.127607782159, 0.116965400265, 0.00110119222512, 0.0329550872923, 0.0952862031727, -0.00739990622906, 0.0220140692575, -0.122283101497, -0.218322547356, -0.0126113033919, 0.0535019872758, -0.0750406903563, -0.0983361463714, -0.0907126589791, -0.190198418343, -0.059137580037, 0.00129128388487, 0.469253840272, -0.0619804725758, -0.0650788654336, -0.104410823192, 0.0494369243428, -0.172155325437, 0.0268805590882, -0.0348390269623, -0.0477252493155, -0.00663868246198, -0.0208020669984, 0.0658198941439},
	{-0.0245460325072, -0.143426723242, -0.0789187517425, -0.0228301749136, 0.0993581411754, -0.0545368268985, -0.024533633393, 0.147653585724, -0.0106449663283, -0.270156834858, 0.102140060806, -0.0871510146249, -0.0589789991145, 0.246391932855, -0.113838973213, -0.117472246775, -0.317666965912, -0.0175540430911, -0.107802348739, -0.00923542321976, 0.0154909169215, -0.00119314983107, -0.00724441917141, -0.157451036331, -0.274610571092, -0.0223850499918, -0.197349759784, -0.0705939391912, -0.153426912199, -0.201072438409, 0.0786938096283, -0.181608515161, 0.28776425062, -0.149571736075, 0.261020944905, -0.0247575389943, -0.0986403806988, -0.0299171342561, -0.212714706026, 0.283852322901, 0.466967396561, -0.0375513879273, -0.0234865489467, 0.20080596551, 0.15564701459, -0.119649979342, -0.0228209598812, -0.0592500625116, -0.0556074366761, 0.0352810387405, -0.216487193798, 0.0983325676729, -0.0176698206547, -0.175370849217, 0.0380041017239, 0.0734287135336, 0.00293886838662, 0.016766923497, 0.146889688636, 0.0743827478339, 0.0881548333621, -0.00484195236264, -0.0179090118247, 0.141206462837, 0.154695298572, 0.00214547478261, 0.00422274366355, -0.0661817643992, 0.035229354092, 0.176220043339, 0.0668857864258, 0.0923014234857, -0.0465159647552, -0.0284550748917, -0.0924626083731, -0.0149614498103, -0.0180017706861, 0.0577510765328, -0.221600249181, 0.019596934291, 0.0112272438939, -0.12661387021, -0.382059909227, -0.0119844833671, 0.0193389276178, 0.0510873654576, 0.0424821792128, -0.00362029711327, 0.214097597725, -0.36365385815, -0.109037841983, -0.396938477345, -0.0221031379253, 0.239740681284, 0.0179732293177, -0.0323616859362, -0.0439859924723, -0.0296465250417, -0.0155055873296, 0.0893257551676},
	{0.0526601988918, -0.084571618782, -0.0231719789396, 0.071512990672, 0.206492913941, 0.0654927508191, -0.0666009234747, 0.0782015808378, -0.00747006353532, -0.325967064656, 0.36950690775, -0.144432135718, -0.0399034736654, 0.177017937662, 0.0891878778046, 0.0034459267897, -0.0457450221196, -0.0182965332557, -0.187666956752, -0.0433927695774, 0.110830767497, -0.018896726348, 0.0053761755333, -0.191618703956, -0.107374244295, -0.0886086978141, -0.0452166637381, 0.0880431054745, 0.00497135787125, -0.179422646471, 0.0707520429015, -0.166008243466, 0.138431216781, -0.183502140774, 0.24398189986, -0.0222180120319, -0.0934074141134, 0.124617584342, -0.252249856354, 0.146040022664, 0.280602219919, 0.0396577254903, -0.0690130091499, 0.194876665758, 0.13998302077, -0.136671266184, 0.0530420373591, -0.072704488406, -0.106372792055, 0.0400214995457, -0.105769311084, 0.0291989214466, -0.0267436283986, -0.12084756614, -0.0354473379243, 0.0476796735874, -0.00619149124873, -0.00644037573017, 0.0721902008785, 0.166650953733, 0.125265828257, -0.00387307561922, -0.04846388886, 0.105544002872, 0.155755958598, 0.00161074813027, 0.00340095540094, -0.193116510866, 0.2564614546, 0.0502335434623, 0.116227136427, 0.146235565542, -0.0471545050231, -0.132564214181, -0.0891159387464, 0.0504722056423, -0.0799734097396, -0.0461806861019, -0.0761945684497, 0.128737324461, -0.0107951893064, -0.225244726563, -0.0504238719916, -0.00492778427114, -0.057095213558, 0.0779968791976, 0.31023039646, 0.000385402298927, -0.285782200091, -0.211215048937, -0.0835611210898, -0.422695331306, 0.0131837877028, -0.00248540206711, 0.0740435216667, -0.0357361223311, -0.0114519524441, 0.0354992531312, -0.022983771792, -0.0381692638847},
	{-0.0366795252536, 0.0443330300544, 0.101400061579, 0.0584299543471, 0.201238692729, 0.241719407557, -0.0655826839952, 0.00210934103236, -0.0239192202809, -0.0527527275049, 0.133487453795, -0.0313253620018, -0.0164806887203, 0.0427200331083, 0.127839259796, -0.0770577266211, 0.011231042337, -0.0107772584445, -0.200853823274, -0.133674420591, 0.169386386276, -0.00191827636043, -0.00817108335814, -0.133760254752, 0.119390836795, -0.101896003207, -0.0412333604322, 0.0310269407853, 0.0792125479441, -0.119326431274, -0.0124915926261, -0.111064466544, -0.231607806165, -0.182610902028, 0.194121429817, -0.0400886695999, -0.329007164661, 0.0784314057874, -0.274497848475, 0.154223643397, -0.0616659010088, 0.136278807121, 0.0232225298526, 0.0766462952293, 0.120577606692, -0.138981052423, 0.0609903712862, -0.0767412799306, 0.0187759264139, 0.0822140856812, -0.12610169215, -0.0256829251674, -0.014717142451, -0.0699628756965, -0.0559598134835, 0.0139973949714, -0.00705355129378, -0.0161432012164, 0.0198861699088, 0.0646073496334, -0.041989775934, -0.0140777202771, -0.05103076162, 0.11875383942, 0.0983576976302, -0.01294947317, -0.0067656190528, -0.225011052948, 0.279730009071, 0.0365503236995, 0.0624150520487, 0.169312405141, -0.0335964369925, -0.0744357670459, -0.0982898443656, 0.0842243882908, -0.039456945853, -0.197348592949, 0.056565417855, 0.0256434801455, -0.0185574810772, -0.204257617015, -0.0767045101935, -0.237887430525, 0.0242375855091, -0.0157224793562, 0.459239368227, -0.0119883099769, -0.150173649602, -0.206710671086, 0.0201017003638, -0.254453186637, 0.0455430322178, -0.163544516352, 0.231788877023, -0.0222340229441, -0.0187650196285, 0.0733790855752, -0.0370800279983, 0.0613215839927},
