// af1_bias.h
// 2017/06/14 10:48:26 by marsee

const float af1_fbias[100] = {
	0.0339972820038, -0.122823963819, -0.130164406039, 0.0545037560231, 0.10878756136, -0.0620177227401, -0.0365259638045, 0.0382948068408, -0.0103287434994, -0.0665133054634, 0.0445787555882, -0.116366861468, -0.118981459383, -0.0219303383985, -0.0477879681184, 0.021006252879, 0.152282806211, -0.0211304080602, -0.0740822954686, 0.0230058181948, -0.158152193375, -0.00596490384302, -0.0093353173878, 0.0225488173876, -0.0149262119348, 0.0301122847215, -0.0719556518411, 0.158887744855, -0.0263359145137, -0.110513639704, -0.149023626717, -0.172449507872, 0.240308696337, 0.0515751427514, 0.0935960608897, -0.00975862925119, 0.191737791325, 0.0367532923972, -0.0580931539574, -0.148973686047, 0.0294242653706, 0.0264907628151, 0.0351499654375, -0.0757090293114, -0.11686537028, 0.0284577048411, -0.0184357689552, -0.018251223194, -0.210120029796, 0.0525019874664, -0.0953564610873, 0.0954556515892, -0.00598451933351, 0.0309385193617, -0.0395374867643, -0.0476539023726, -0.00689154945177, -0.0088664871353, 0.0532155798747, 0.147685837541, 0.156217013199, -0.0064764244137, -0.0351376313112, -0.0919972704095, -0.0468292154527, -0.00599203820661, -0.00674307835401, -0.0314992311814, -0.134573772654, 0.0892172011564, -0.0387146878284, -0.00637878987416, 0.112953602579, 0.0174876396162, 0.11579277393, 0.0131979100069, 0.0874959308351, 0.242768570167, -0.0368159370362, -0.0629566676347, -0.00563424511269, -0.00327712984581, 0.105112572923, 0.131465476967, 0.0454593809417, 0.0799953848723, -0.219359178731, -0.00833349920825, 0.12231012061, 0.0743194566585, -0.124580147263, 0.12651139238, 0.129290121029, 0.106404073155, 0.00383370887421, -0.0112440714245, -0.059868280039, -0.142110405579, -0.0136539501581, 0.0728794448416
};

const ap_fixed<9, 1, AP_TRN, AP_SAT> af1_bias[100] = {
	0.03515625, -0.1171875, -0.125, 0.0546875, 0.109375, -0.05859375, -0.03125, 0.0390625, -0.0078125, -0.0625, 0.04296875, -0.11328125, -0.11328125, -0.01953125, -0.04296875, 0.01953125, 0.15234375, -0.015625, -0.0703125, 0.0234375, -0.15234375, -0.00390625, -0.00390625, 0.0234375, -0.01171875, 0.03125, -0.06640625, 0.16015625, -0.0234375, -0.10546875, -0.14453125, -0.16796875, 0.2421875, 0.05078125, 0.09375, -0.00390625, 0.19140625, 0.03515625, -0.0546875, -0.14453125, 0.03125, 0.02734375, 0.03515625, -0.0703125, -0.11328125, 0.02734375, -0.015625, -0.015625, -0.20703125, 0.05078125, -0.08984375, 0.09375, -0.00390625, 0.03125, -0.03515625, -0.04296875, -0.00390625, -0.00390625, 0.0546875, 0.1484375, 0.15625, -0.00390625, -0.03125, -0.08984375, -0.04296875, -0.00390625, -0.00390625, -0.02734375, -0.12890625, 0.08984375, -0.03515625, -0.00390625, 0.11328125, 0.015625, 0.1171875, 0.01171875, 0.0859375, 0.2421875, -0.03125, -0.05859375, 0.0, 0.0, 0.10546875, 0.1328125, 0.046875, 0.078125, -0.21484375, -0.00390625, 0.12109375, 0.07421875, -0.12109375, 0.125, 0.12890625, 0.10546875, 0.00390625, -0.0078125, -0.0546875, -0.13671875, -0.0078125, 0.07421875
};
