// conv1_weight.h
// 2017/06/14 10:47:59 by marsee

const float conv1_fweight[10][1][5][5] = 
{
	{
		{
			{-0.579486073477,-0.774956344517,-0.499517616803,0.168195805515,0.394949541988},
			{-0.801470787251,-0.387511563478,0.0692499534816,0.501335230587,0.297112402575},
			{-0.483988591571,0.0017755991647,0.411605264857,0.527607868075,0.0367477984934},
			{-0.0608744954371,0.243932466725,0.389768040516,0.237310293631,-0.0960524112444},
			{0.181105893822,0.219153040907,0.22309424928,0.101546627973,-0.0275302070562}
		}
	}
	,
	{
		{
			{-0.397274826288,-0.35036192059,-0.165786438569,0.0851951098435,0.344412022148},
			{-0.387013811918,0.158794696611,0.362276486342,0.452441418183,0.410366310332},
			{0.333987224993,0.707287057418,0.529275333553,0.359313853662,-0.00804348060582},
			{0.493226036361,0.34803621121,-0.0834336348574,-0.312047253234,-0.59894642757},
			{-0.0595857325045,-0.668495913696,-0.817929099332,-0.654218443659,-0.449999045115}
		}
	}
	,
	{
		{
			{-0.120339400756,-0.41144517677,-0.633575248702,-0.606937979599,-0.600851954609},
			{0.176448295413,-0.0359731505156,-0.431877065202,-0.633209099528,-0.815103238075},
			{0.396665682108,0.511452032571,0.428800359894,0.230798999205,-0.0936780000851},
			{0.207110341974,0.510156024273,0.643459070299,0.57027774458,0.402863293999},
			{-0.148419006492,0.0126199144896,0.140972802413,0.271185245147,0.300861241697}
		}
	}
	,
	{
		{
			{0.0525483273122,0.0587587974047,-0.215806921,-0.574226076593,-0.537493605872},
			{0.146678537148,0.375506011434,0.188626115268,-0.272619052658,-0.272799622052},
			{-0.0585000617021,0.505193992887,0.6610082132,0.282664684626,0.0455480165377},
			{-0.430168545373,0.00872237372757,0.283690253044,0.276621465849,0.114980826352},
			{-0.458253459749,-0.351115502837,-0.176448967821,0.0582906390319,0.208415914738}
		}
	}
	,
	{
		{
			{-0.305138166918,-0.196005561357,-0.017473389156,0.282940616864,0.142064021391},
			{-0.227391244838,-0.0299883008775,0.107321655925,0.286714555904,-0.0539522357},
			{-0.154271491771,-0.0513209260161,0.200129051361,0.268396126054,-0.139238287546},
			{-0.145489834055,-0.0548864418535,0.137308577337,0.162283174163,-0.0693285990886},
			{-0.0919827459798,0.0102468862044,0.152929164981,0.141475586265,-0.0351826924065}
		}
	}
	,
	{
		{
			{-0.0700454664278,0.118317245027,0.298170785595,0.110265000648,-0.118505615808},
			{-0.258119827063,0.147128813518,0.337611935623,-0.0358780311517,-0.495492000554},
			{-0.182932727834,0.33052364635,0.405472391545,-0.122998491276,-0.648097092549},
			{-0.0847358099525,0.317804350643,0.327587870449,-0.137358881072,-0.485118562655},
			{-0.0419881173161,0.232333149632,0.258906445598,-0.0953892734333,-0.471742649245}
		}
	}
	,
	{
		{
			{-0.107796253191,-0.258222529222,-0.297837684006,-0.211865761226,-0.0387722148576},
			{0.108603360345,0.187054176027,0.208292348301,0.283880411869,0.293308246228},
			{0.448121934136,0.526909381612,0.494815221741,0.424877937811,0.43922218768},
			{-0.0386703316783,0.00356887441286,-0.00854673670769,0.015886755606,0.103246530115},
			{-0.738560851639,-0.785694028573,-0.760696673862,-0.686442597225,-0.462684966325}
		}
	}
	,
	{
		{
			{-0.266620010475,-0.116155619762,0.164358058548,0.286433068253,0.0237448275306},
			{-0.338418960882,-0.0690312260861,0.265764000029,0.259765664271,-0.249598838404},
			{-0.259395551538,0.0396578273591,0.34127438918,0.20781602835,-0.263539745873},
			{-0.190886757429,0.0174988601768,0.22454700816,0.124588308554,-0.164896873996},
			{-0.154710866674,0.0473146708421,0.211132177913,0.123128463403,-0.13757776322}
		}
	}
	,
	{
		{
			{0.17478071453,0.158818867017,0.137546850158,0.0140771836595,-0.0270828274115},
			{0.0400847972674,0.155866544253,0.193042323982,-0.00102790817601,-0.185994985383},
			{-0.196779176375,0.119120073535,0.296608719443,0.0297806258144,-0.258472407135},
			{-0.263566203039,0.00568522526845,0.369663553999,0.151534688347,-0.0997959671311},
			{-0.294869616255,-0.138292012568,0.24514898302,0.235513455257,0.0854268895237}
		}
	}
	,
	{
		{
			{0.18469828655,0.122796556246,0.0146713484741,0.0221949571006,0.115929531981},
			{0.108717401504,0.174444620005,0.148621681049,0.060240106695,-0.127092336085},
			{-0.0504786383255,0.0882651510029,0.223479192402,0.268046795217,-0.131558106119},
			{-0.188510699731,-0.115885459107,0.15237645819,0.347033302016,0.145282063752},
			{-0.327704653945,-0.346041678226,-0.182076352716,0.138201792324,0.313215633922}
		}
	}
};

const ap_fixed<9, 1, AP_TRN, AP_SAT> conv1_weight[10][1][5][5] =
{
	{
		{
			{-0.57421875,-0.76953125,-0.49609375,0.16796875,0.39453125},
			{-0.796875,-0.3828125,0.0703125,0.5,0.296875},
			{-0.48046875,0.0,0.41015625,0.52734375,0.03515625},
			{-0.05859375,0.2421875,0.390625,0.23828125,-0.09375},
			{0.1796875,0.21875,0.22265625,0.1015625,-0.0234375}
		}
	}
	,
	{
		{
			{-0.39453125,-0.34765625,-0.16015625,0.0859375,0.34375},
			{-0.3828125,0.16015625,0.36328125,0.453125,0.41015625},
			{0.3359375,0.70703125,0.52734375,0.359375,-0.00390625},
			{0.4921875,0.34765625,-0.078125,-0.30859375,-0.59375},
			{-0.0546875,-0.6640625,-0.8125,-0.6484375,-0.4453125}
		}
	}
	,
	{
		{
			{-0.1171875,-0.40625,-0.62890625,-0.6015625,-0.59765625},
			{0.17578125,-0.03125,-0.4296875,-0.62890625,-0.8125},
			{0.3984375,0.51171875,0.4296875,0.23046875,-0.08984375},
			{0.20703125,0.51171875,0.64453125,0.5703125,0.40234375},
			{-0.14453125,0.01171875,0.140625,0.26953125,0.30078125}
		}
	}
	,
	{
		{
			{0.05078125,0.05859375,-0.2109375,-0.5703125,-0.53515625},
			{0.1484375,0.375,0.1875,-0.26953125,-0.26953125},
			{-0.0546875,0.50390625,0.66015625,0.28125,0.046875},
			{-0.42578125,0.0078125,0.28515625,0.27734375,0.11328125},
			{-0.453125,-0.34765625,-0.171875,0.05859375,0.20703125}
		}
	}
	,
	{
		{
			{-0.30078125,-0.19140625,-0.01171875,0.28125,0.140625},
			{-0.22265625,-0.02734375,0.10546875,0.28515625,-0.05078125},
			{-0.1484375,-0.046875,0.19921875,0.26953125,-0.13671875},
			{-0.140625,-0.05078125,0.13671875,0.1640625,-0.06640625},
			{-0.08984375,0.01171875,0.15234375,0.140625,-0.03125}
		}
	}
	,
	{
		{
			{-0.06640625,0.1171875,0.296875,0.109375,-0.11328125},
			{-0.25390625,0.1484375,0.3359375,-0.03125,-0.4921875},
			{-0.1796875,0.33203125,0.40625,-0.1171875,-0.64453125},
			{-0.08203125,0.31640625,0.328125,-0.1328125,-0.48046875},
			{-0.0390625,0.23046875,0.2578125,-0.08984375,-0.46875}
		}
	}
	,
	{
		{
			{-0.10546875,-0.25390625,-0.29296875,-0.20703125,-0.03515625},
			{0.109375,0.1875,0.20703125,0.28515625,0.29296875},
			{0.44921875,0.52734375,0.49609375,0.42578125,0.4375},
			{-0.03515625,0.00390625,-0.00390625,0.015625,0.1015625},
			{-0.734375,-0.78125,-0.7578125,-0.68359375,-0.45703125}
		}
	}
	,
	{
		{
			{-0.26171875,-0.11328125,0.1640625,0.28515625,0.0234375},
			{-0.3359375,-0.06640625,0.265625,0.26171875,-0.24609375},
			{-0.25390625,0.0390625,0.33984375,0.20703125,-0.2578125},
			{-0.1875,0.015625,0.22265625,0.125,-0.16015625},
			{-0.15234375,0.046875,0.2109375,0.125,-0.1328125}
		}
	}
	,
	{
		{
			{0.17578125,0.16015625,0.13671875,0.015625,-0.0234375},
			{0.0390625,0.15625,0.19140625,0.0,-0.18359375},
			{-0.19140625,0.1171875,0.296875,0.03125,-0.25390625},
			{-0.2578125,0.00390625,0.37109375,0.15234375,-0.09765625},
			{-0.2890625,-0.1328125,0.24609375,0.234375,0.0859375}
		}
	}
	,
	{
		{
			{0.18359375,0.12109375,0.015625,0.0234375,0.1171875},
			{0.109375,0.17578125,0.1484375,0.05859375,-0.125},
			{-0.046875,0.08984375,0.22265625,0.26953125,-0.12890625},
			{-0.18359375,-0.11328125,0.15234375,0.34765625,0.14453125},
			{-0.32421875,-0.34375,-0.1796875,0.13671875,0.3125}
		}
	}
};

